{"learner":{"attributes":{"scikit_learn":"{\"_estimator_type\": \"regressor\"}"},"feature_names":["avg_temperature","avg_humidity","rain_percent","hour"],"feature_types":["float","float","float","int"],"gradient_booster":{"model":{"gbtree_model_param":{"num_parallel_tree":"1","num_trees":"300"},"iteration_indptr":[0,1,2,3,4,5,6,7,8,9,10,11,12,13,14,15,16,17,18,19,20,21,22,23,24,25,26,27,28,29,30,31,32,33,34,35,36,37,38,39,40,41,42,43,44,45,46,47,48,49,50,51,52,53,54,55,56,57,58,59,60,61,62,63,64,65,66,67,68,69,70,71,72,73,74,75,76,77,78,79,80,81,82,83,84,85,86,87,88,89,90,91,92,93,94,95,96,97,98,99,100,101,102,103,104,105,106,107,108,109,110,111,112,113,114,115,116,117,118,119,120,121,122,123,124,125,126,127,128,129,130,131,132,133,134,135,136,137,138,139,140,141,142,143,144,145,146,147,148,149,150,151,152,153,154,155,156,157,158,159,160,161,162,163,164,165,166,167,168,169,170,171,172,173,174,175,176,177,178,179,180,181,182,183,184,185,186,187,188,189,190,191,192,193,194,195,196,197,198,199,200,201,202,203,204,205,206,207,208,209,210,211,212,213,214,215,216,217,218,219,220,221,222,223,224,225,226,227,228,229,230,231,232,233,234,235,236,237,238,239,240,241,242,243,244,245,246,247,248,249,250,251,252,253,254,255,256,257,258,259,260,261,262,263,264,265,266,267,268,269,270,271,272,273,274,275,276,277,278,279,280,281,282,283,284,285,286,287,288,289,290,291,292,293,294,295,296,297,298,299,300],"tree_info":[0,0,0,0,0,0,0,0,0,0,0,0,0,0,0,0,0,0,0,0,0,0,0,0,0,0,0,0,0,0,0,0,0,0,0,0,0,0,0,0,0,0,0,0,0,0,0,0,0,0,0,0,0,0,0,0,0,0,0,0,0,0,0,0,0,0,0,0,0,0,0,0,0,0,0,0,0,0,0,0,0,0,0,0,0,0,0,0,0,0,0,0,0,0,0,0,0,0,0,0,0,0,0,0,0,0,0,0,0,0,0,0,0,0,0,0,0,0,0,0,0,0,0,0,0,0,0,0,0,0,0,0,0,0,0,0,0,0,0,0,0,0,0,0,0,0,0,0,0,0,0,0,0,0,0,0,0,0,0,0,0,0,0,0,0,0,0,0,0,0,0,0,0,0,0,0,0,0,0,0,0,0,0,0,0,0,0,0,0,0,0,0,0,0,0,0,0,0,0,0,0,0,0,0,0,0,0,0,0,0,0,0,0,0,0,0,0,0,0,0,0,0,0,0,0,0,0,0,0,0,0,0,0,0,0,0,0,0,0,0,0,0,0,0,0,0,0,0,0,0,0,0,0,0,0,0,0,0,0,0,0,0,0,0,0,0,0,0,0,0,0,0,0,0,0,0,0,0,0,0,0,0,0,0,0,0,0,0,0,0,0,0,0,0,0,0,0,0,0,0],"trees":[{"base_weights":[-1.0220162E-6,9.057255E1,-5.0158344E1,1.5034735E2,-6.2247627E1,-8.748534E1,-2.55465E1,-6.159395E1,1.9328459E2,4.5124674E0,-8.3554504E1,-4.5523763E0,-6.648107E1,6.265718E1,-8.340803E1,-8.440296E1,2.0688866E1,2.0815637E2,8.823318E1,-2.9601336E1,3.0573923E1,-6.0670616E1,-4.5440626E0,-7.887626E1,-4.231538E1,9.782399E1,1.174596E1,-2.1531134E1,-8.867902E1,-4.531612E0,-5.772745E1,-2.3583708E1,3.3508847E0,1.1779513E2,2.2075023E2,7.138836E1,6.8624353E0,-5.747537E0,-3.5972744E1,6.000908E1,1.6059015E1,-7.2084946E1,-3.4223263E1,-4.287102E0,-3.4447415E0,-4.929509E1,-3.2430984E1,2.3090453E0,1.1695843E2,-3.13508E1,2.8920622E1,-3.287367E1,3.3158752E1,-6.630805E1,-4.5520225E0,-3.663602E0,-1.6150712E0,-2.1427028E0,2.4835129E-1,8.841099E0,4.8254437E0,1.2144888E1,9.903237E0,1.31511E-1,3.8288693E0,-1.2798932E0,1.7455517E0,-2.6248043E0,-1.5974312E0,1.9912266E0,3.506429E0,-3.0180907E-2,1.6124662E0,-3.9553318E0,-3.025714E0,-1.9514273E0,4.0698314E0,-2.5533311E0,-1.6689199E-1,-8.9927036E-1,-1.6753289E0,-2.5749342E0,1.5537513E0,6.3247056E0,2.3712583E0,-2.3774943E0,-1.3830945E-1,1.9019791E0,-2.4184163E0,3.6572966E-1,-1.7237157E0,2.6787463E-1,2.7066114E0,-3.8248804E0,-1.8314545E0],"categories":[],"categories_nodes":[],"categories_segments":[],"categories_sizes":[],"default_left":[0,0,0,0,0,0,0,0,0,0,0,0,0,0,0,0,0,0,0,0,0,0,0,0,0,0,0,0,0,0,0,0,0,0,0,0,0,0,0,0,0,0,0,0,0,0,0,0,0,0,0,0,0,0,0,0,0,0,0,0,0,0,0,0,0,0,0,0,0,0,0,0,0,0,0,0,0,0,0,0,0,0,0,0,0,0,0,0,0,0,0,0,0,0,0],"id":0,"left_children":[1,3,5,7,9,11,13,15,17,19,21,-1,23,25,27,29,31,33,35,37,39,41,-1,43,45,47,49,51,53,-1,55,57,-1,59,61,63,-1,65,67,69,71,73,75,-1,-1,77,79,81,83,85,87,89,91,93,-1,-1,-1,-1,-1,-1,-1,-1,-1,-1,-1,-1,-1,-1,-1,-1,-1,-1,-1,-1,-1,-1,-1,-1,-1,-1,-1,-1,-1,-1,-1,-1,-1,-1,-1,-1,-1,-1,-1,-1,-1],"loss_changes":[3.2018844E7,2.2955966E7,4.164926E6,1.6446824E7,1.00604875E6,1.28774E5,1.396357E7,5.7416725E5,2.328204E6,1.5382255E5,8.4354E4,0E0,7.6039875E4,1.9396285E6,5.36894E5,3.44825E4,1.3900398E5,1.470464E6,1.4542562E5,1.1191914E4,4.090668E4,3.7682906E4,0E0,6.017125E3,4.7484062E3,1.171238E6,3.2954312E5,8.235222E4,7.4368E4,0E0,1.6604594E4,1.9469246E4,0E0,1.8773825E5,5.31188E5,5.0462438E4,0E0,1.4614107E4,2.2458438E3,3.7434062E3,1.8094268E4,2.6875E3,2.6511406E4,0E0,0E0,4.0631172E3,3.4410156E1,1.687662E5,3.480675E5,5.8675125E4,2.2596466E5,7.263828E3,1.3121033E4,4.2257812E4,0E0,0E0,0E0,0E0,0E0,0E0,0E0,0E0,0E0,0E0,0E0,0E0,0E0,0E0,0E0,0E0,0E0,0E0,0E0,0E0,0E0,0E0,0E0,0E0,0E0,0E0,0E0,0E0,0E0,0E0,0E0,0E0,0E0,0E0,0E0,0E0,0E0,0E0,0E0,0E0,0E0],"parents":[2147483647,0,0,1,1,2,2,3,3,4,4,5,5,6,6,7,7,8,8,9,9,10,10,12,12,13,13,14,14,15,15,16,16,17,17,18,18,19,19,20,20,21,21,23,23,24,24,25,25,26,26,27,27,28,28,30,30,31,31,33,33,34,34,35,35,37,37,38,38,39,39,40,40,41,41,42,42,45,45,46,46,47,47,48,48,49,49,50,50,51,51,52,52,53,53],"right_children":[2,4,6,8,10,12,14,16,18,20,22,-1,24,26,28,30,32,34,36,38,40,42,-1,44,46,48,50,52,54,-1,56,58,-1,60,62,64,-1,66,68,70,72,74,76,-1,-1,78,80,82,84,86,88,90,92,94,-1,-1,-1,-1,-1,-1,-1,-1,-1,-1,-1,-1,-1,-1,-1,-1,-1,-1,-1,-1,-1,-1,-1,-1,-1,-1,-1,-1,-1,-1,-1,-1,-1,-1,-1,-1,-1,-1,-1,-1,-1],"split_conditions":[7.5E1,1.6E1,7E0,8E0,1.7E1,6E0,1.6E1,7E0,1.5E1,2.61E1,1.8E1,-4.5523763E0,2.66E1,8.8E1,1.7E1,6E0,2.55E1,1.88E1,3.16E1,5.85E1,6.65E1,3.04E1,-4.5440626E0,2.16E1,2.85E1,8E0,8E0,3E1,1.8E1,-4.531612E0,2.54E1,1.67E1,3.3508847E0,6.25E1,6.8E1,1.64E1,6.8624353E0,2.16E1,1.58E1,3.04E1,3.08E1,2.51E1,3.38E1,-4.287102E0,-3.4447415E0,2.5E-1,2.86E1,2.3E1,1.5E1,2.59E1,1.5E0,7.55E1,3.06E1,2.88E1,-4.5520225E0,-3.663602E0,-1.6150712E0,-2.1427028E0,2.4835129E-1,8.841099E0,4.8254437E0,1.2144888E1,9.903237E0,1.31511E-1,3.8288693E0,-1.2798932E0,1.7455517E0,-2.6248043E0,-1.5974312E0,1.9912266E0,3.506429E0,-3.0180907E-2,1.6124662E0,-3.9553318E0,-3.025714E0,-1.9514273E0,4.0698314E0,-2.5533311E0,-1.6689199E-1,-8.9927036E-1,-1.6753289E0,-2.5749342E0,1.5537513E0,6.3247056E0,2.3712583E0,-2.3774943E0,-1.3830945E-1,1.9019791E0,-2.4184163E0,3.6572966E-1,-1.7237157E0,2.6787463E-1,2.7066114E0,-3.8248804E0,-1.8314545E0],"split_indices":[1,3,3,3,3,3,3,3,3,0,3,0,0,1,3,3,0,0,0,1,1,0,0,0,0,3,3,0,3,0,0,0,0,1,1,0,0,0,0,0,0,0,0,0,0,2,0,0,3,0,2,1,0,0,0,0,0,0,0,0,0,0,0,0,0,0,0,0,0,0,0,0,0,0,0,0,0,0,0,0,0,0,0,0,0,0,0,0,0,0,0,0,0,0,0],"split_type":[0,0,0,0,0,0,0,0,0,0,0,0,0,0,0,0,0,0,0,0,0,0,0,0,0,0,0,0,0,0,0,0,0,0,0,0,0,0,0,0,0,0,0,0,0,0,0,0,0,0,0,0,0,0,0,0,0,0,0,0,0,0,0,0,0,0,0,0,0,0,0,0,0,0,0,0,0,0,0,0,0,0,0,0,0,0,0,0,0,0,0,0,0,0,0],"sum_hessian":[7.046E3,2.511E3,4.535E3,1.805E3,7.06E2,1.801E3,2.734E3,3.04E2,1.501E3,1.71E2,5.35E2,1.537E3,2.64E2,1.083E3,1.651E3,2.38E2,6.6E1,1.314E3,1.87E2,7.4E1,9.7E1,1.32E2,4.03E2,1.73E2,9.1E1,6.4E2,4.43E2,1.3E2,1.521E3,1.91E2,4.7E1,3.4E1,3.2E1,1.62E2,1.152E3,1.41E2,4.6E1,1.6E1,5.8E1,3.1E1,6.6E1,9.1E1,4.1E1,9.8E1,7.5E1,5.1E1,4E1,1.07E2,5.33E2,1.26E2,3.17E2,1.08E2,2.2E1,1.48E2,1.373E3,2.8E1,1.9E1,2E1,1.4E1,4.1E1,1.21E2,5.78E2,5.74E2,1E1,1.31E2,1.1E1,5E0,9E0,4.9E1,1.2E1,1.9E1,3.3E1,3.3E1,5.3E1,3.8E1,4E1,1E0,4.9E1,2E0,4E0,3.6E1,3.7E1,7E1,4.68E2,6.5E1,8E1,4.6E1,2.84E2,3.3E1,4E0,1.04E2,1E1,1.2E1,1.09E2,3.9E1],"tree_param":{"num_deleted":"0","num_feature":"4","num_nodes":"95","size_leaf_vector":"1"}},{"base_weights":[1.4975287E-3,8.6056694E1,-4.765517E1,1.4285112E2,-5.9143852E1,-8.312082E1,-2.4270617E1,-5.854164E1,1.8365134E2,4.3061666E0,-7.939433E1,-4.3249054E0,-6.3206177E1,5.9528603E1,-7.924282E1,-8.022386E1,1.967616E1,1.977757E2,8.3879074E1,-2.8171354E1,2.9117472E1,-5.767365E1,-4.317422E0,-7.497688E1,-4.0257164E1,9.294476E1,1.1151834E1,-2.0442238E1,-8.425178E1,-4.306212E0,-5.4951046E1,-2.2458649E1,6.376835E1,1.11989204E2,2.0973184E2,6.7846825E1,6.5266137E0,-5.4327693E0,-3.424567E1,5.7180424E1,1.5279681E1,-5.9313023E1,3.968085E0,-4.0749125E0,-3.2747707E0,-4.7555916E1,-1.5788611E0,2.1841395E0,1.11126785E2,-2.980307E1,2.747297E1,-3.1242443E1,3.163014E1,-6.3030613E1,-4.324587E0,-3.4867387E0,-1.538355E0,-2.0406694E0,2.3676153E-1,2.1174781E0,3.3953056E0,8.409569E0,4.5861487E0,6.490703E0,1.0762541E1,4.776075E0,2.7011654E0,-1.2212313E0,1.6728204E0,-2.506688E0,-1.5191568E0,1.8993238E0,3.3398736E0,-2.8716201E-2,1.5342143E0,-3.427829E0,-1.8562359E0,-2.4706569E0,-1.613289E-1,-2.6186886E0,1.3979521E0,6.009145E0,2.2544916E0,-2.260087E0,-1.315413E-1,2.2290676E0,-5.694257E-1,-1.8397423E0,-9.225898E-1,2.5569847E-1,2.5816905E0,-3.6353748E0,-1.7421713E0],"categories":[],"categories_nodes":[],"categories_segments":[],"categories_sizes":[],"default_left":[0,0,0,0,0,0,0,0,0,0,0,0,0,0,0,0,0,0,0,0,0,0,0,0,0,0,0,0,0,0,0,0,0,0,0,0,0,0,0,0,0,0,0,0,0,0,0,0,0,0,0,0,0,0,0,0,0,0,0,0,0,0,0,0,0,0,0,0,0,0,0,0,0,0,0,0,0,0,0,0,0,0,0,0,0,0,0,0,0,0,0,0,0],"id":1,"left_children":[1,3,5,7,9,11,13,15,17,19,21,-1,23,25,27,29,31,33,35,37,39,41,-1,43,45,47,49,51,53,-1,55,57,59,61,63,65,-1,67,69,71,73,75,-1,-1,-1,77,-1,79,81,83,85,87,89,91,-1,-1,-1,-1,-1,-1,-1,-1,-1,-1,-1,-1,-1,-1,-1,-1,-1,-1,-1,-1,-1,-1,-1,-1,-1,-1,-1,-1,-1,-1,-1,-1,-1,-1,-1,-1,-1,-1,-1],"loss_changes":[2.8904582E7,2.072386E7,3.759908E6,1.485042E7,9.087615E5,1.15731E5,1.2603845E7,5.18839E5,2.100056E6,1.3941955E5,7.598175E4,0E0,6.8565E4,1.751321E6,4.84841E5,3.0906875E4,1.2590581E5,1.325276E6,1.3175938E5,1.0173051E4,3.7182562E4,3.4585844E4,0E0,5.421E3,4.3267656E3,1.057543E6,2.976019E5,7.466161E4,6.6896E4,0E0,1.5015859E4,1.7663041E4,4.8875E1,1.70231E5,4.80608E5,4.9163312E4,0E0,1.3372982E4,2.0975078E3,3.3694531E3,1.6380675E4,2.4527938E4,0E0,0E0,0E0,3.792375E3,0E0,1.5333661E5,3.13933E5,5.301997E4,2.1193228E5,7.062117E3,1.1935627E4,3.81085E4,0E0,0E0,0E0,0E0,0E0,0E0,0E0,0E0,0E0,0E0,0E0,0E0,0E0,0E0,0E0,0E0,0E0,0E0,0E0,0E0,0E0,0E0,0E0,0E0,0E0,0E0,0E0,0E0,0E0,0E0,0E0,0E0,0E0,0E0,0E0,0E0,0E0,0E0,0E0],"parents":[2147483647,0,0,1,1,2,2,3,3,4,4,5,5,6,6,7,7,8,8,9,9,10,10,12,12,13,13,14,14,15,15,16,16,17,17,18,18,19,19,20,20,21,21,23,23,24,24,25,25,26,26,27,27,28,28,30,30,31,31,32,32,33,33,34,34,35,35,37,37,38,38,39,39,40,40,41,41,45,45,47,47,48,48,49,49,50,50,51,51,52,52,53,53],"right_children":[2,4,6,8,10,12,14,16,18,20,22,-1,24,26,28,30,32,34,36,38,40,42,-1,44,46,48,50,52,54,-1,56,58,60,62,64,66,-1,68,70,72,74,76,-1,-1,-1,78,-1,80,82,84,86,88,90,92,-1,-1,-1,-1,-1,-1,-1,-1,-1,-1,-1,-1,-1,-1,-1,-1,-1,-1,-1,-1,-1,-1,-1,-1,-1,-1,-1,-1,-1,-1,-1,-1,-1,-1,-1,-1,-1,-1,-1],"split_conditions":[7.5E1,1.6E1,7E0,8E0,1.7E1,6E0,1.6E1,7E0,1.5E1,2.61E1,1.8E1,-4.3249054E0,2.66E1,8.8E1,1.7E1,6E0,2.55E1,1.88E1,3.16E1,5.85E1,6.65E1,3.38E1,-4.317422E0,2.16E1,2.84E1,8E0,8E0,3E1,1.8E1,-4.306212E0,2.54E1,1.67E1,2.88E1,6.25E1,9E0,6.4E1,6.5266137E0,2.16E1,1.58E1,3.04E1,3.08E1,3.04E1,3.968085E0,-4.0749125E0,-3.2747707E0,2.5E-1,-1.5788611E0,2.16E1,1.5E1,2.59E1,2.5E-1,2.65E1,3.06E1,2.88E1,-4.324587E0,-3.4867387E0,-1.538355E0,-2.0406694E0,2.3676153E-1,2.1174781E0,3.3953056E0,8.409569E0,4.5861487E0,6.490703E0,1.0762541E1,4.776075E0,2.7011654E0,-1.2212313E0,1.6728204E0,-2.506688E0,-1.5191568E0,1.8993238E0,3.3398736E0,-2.8716201E-2,1.5342143E0,-3.427829E0,-1.8562359E0,-2.4706569E0,-1.613289E-1,-2.6186886E0,1.3979521E0,6.009145E0,2.2544916E0,-2.260087E0,-1.315413E-1,2.2290676E0,-5.694257E-1,-1.8397423E0,-9.225898E-1,2.5569847E-1,2.5816905E0,-3.6353748E0,-1.7421713E0],"split_indices":[1,3,3,3,3,3,3,3,3,0,3,0,0,1,3,3,0,0,0,1,1,0,0,0,0,3,3,0,3,0,0,0,0,1,3,1,0,0,0,0,0,0,0,0,0,2,0,0,3,0,2,0,0,0,0,0,0,0,0,0,0,0,0,0,0,0,0,0,0,0,0,0,0,0,0,0,0,0,0,0,0,0,0,0,0,0,0,0,0,0,0,0,0],"split_type":[0,0,0,0,0,0,0,0,0,0,0,0,0,0,0,0,0,0,0,0,0,0,0,0,0,0,0,0,0,0,0,0,0,0,0,0,0,0,0,0,0,0,0,0,0,0,0,0,0,0,0,0,0,0,0,0,0,0,0,0,0,0,0,0,0,0,0,0,0,0,0,0,0,0,0,0,0,0,0,0,0,0,0,0,0,0,0,0,0,0,0,0,0],"sum_hessian":[7.046E3,2.511E3,4.535E3,1.805E3,7.06E2,1.801E3,2.734E3,3.04E2,1.501E3,1.71E2,5.35E2,1.537E3,2.64E2,1.083E3,1.651E3,2.38E2,6.6E1,1.314E3,1.87E2,7.4E1,9.7E1,1.32E2,4.03E2,1.73E2,9.1E1,6.4E2,4.43E2,1.3E2,1.521E3,1.91E2,4.7E1,3.4E1,3.2E1,1.62E2,1.152E3,1.41E2,4.6E1,1.6E1,5.8E1,3.1E1,6.6E1,1.31E2,1E0,9.8E1,7.5E1,4.7E1,4.4E1,1.07E2,5.33E2,1.26E2,3.17E2,1.08E2,2.2E1,1.48E2,1.373E3,2.8E1,1.9E1,2E1,1.4E1,7E0,2.5E1,4.1E1,1.21E2,7.6E1,1.076E3,4.5E1,9.6E1,1.1E1,5E0,9E0,4.9E1,1.2E1,1.9E1,3.3E1,3.3E1,9.1E1,4E1,4.5E1,2E0,3.4E1,7.3E1,4.68E2,6.5E1,8E1,4.6E1,2.2E2,9.7E1,7.4E1,3.4E1,1E1,1.2E1,1.09E2,3.9E1],"tree_param":{"num_deleted":"0","num_feature":"4","num_nodes":"93","size_leaf_vector":"1"}},{"base_weights":[3.8297807E-3,8.176826E1,-4.5276646E1,1.3572995E2,-5.6190144E1,-7.8973595E1,-2.30583E1,-5.5632996E1,1.7449825E2,4.109291E0,-7.543513E1,-4.1088004E0,-6.0089493E1,5.655799E1,-7.5286514E1,-7.625172E1,1.8747707E1,1.8790993E2,7.975961E1,-2.6810442E1,2.7730421E1,-5.4799862E1,-4.102085E0,-7.127028E1,-3.8290077E1,8.83085E1,1.0592594E1,-1.941955E1,-8.004557E1,-4.092023E0,-5.2308186E1,-2.1387255E1,3.0373492E0,1.06469475E2,1.9926021E2,6.450714E1,6.2072268E0,-5.134568E0,-3.260162E1,5.4485126E1,1.4538166E1,-5.63874E1,3.868883E0,-3.8732247E0,-3.1131866E0,-4.5232952E1,-1.5016726E0,3.406559E1,1.1618295E2,-2.8331749E1,2.6104542E1,-2.9705662E1,3.0171999E1,-5.9915173E1,-4.1085153E0,-3.3184133E0,-1.4652833E0,-2.0537393E0,9.3726486E-2,7.999102E0,4.358721E0,1.1009978E1,8.891433E0,-2.5541097E-2,3.4718308E0,-1.1652583E0,1.6031195E0,-1.2864939E0,-2.0166917E0,1.8116627E0,3.1812294E0,-2.732258E-2,1.4597596E0,-3.2583008E0,-1.7656876E0,-2.3498094E0,-1.5595119E-1,-1.3814472E0,2.7715383E0,6.8097205E0,3.3133626E0,-1.9593428E0,3.2740736E-1,1.7275734E0,-2.273418E0,4.1551873E-1,-1.561652E0,2.4407578E-1,2.4625359E0,-3.4552586E0,-1.6572403E0],"categories":[],"categories_nodes":[],"categories_segments":[],"categories_sizes":[],"default_left":[0,0,0,0,0,0,0,0,0,0,0,0,0,0,0,0,0,0,0,0,0,0,0,0,0,0,0,0,0,0,0,0,0,0,0,0,0,0,0,0,0,0,0,0,0,0,0,0,0,0,0,0,0,0,0,0,0,0,0,0,0,0,0,0,0,0,0,0,0,0,0,0,0,0,0,0,0,0,0,0,0,0,0,0,0,0,0,0,0,0,0],"id":2,"left_children":[1,3,5,7,9,11,13,15,17,19,21,-1,23,25,27,29,31,33,35,37,39,41,-1,43,45,47,49,51,53,-1,55,57,-1,59,61,63,-1,65,67,69,71,73,-1,-1,-1,75,-1,77,79,81,83,85,87,89,-1,-1,-1,-1,-1,-1,-1,-1,-1,-1,-1,-1,-1,-1,-1,-1,-1,-1,-1,-1,-1,-1,-1,-1,-1,-1,-1,-1,-1,-1,-1,-1,-1,-1,-1,-1,-1],"loss_changes":[2.6094038E7,1.8708132E7,3.394239E6,1.3408086E7,8.207565E5,1.04037E5,1.137698E7,4.6918806E5,1.89346E6,1.2636522E5,6.8576E4,0E0,6.186075E4,1.5810812E6,4.3767E5,2.770075E4,1.1423704E5,1.194336E6,1.19263875E5,9.247262E3,3.379747E4,3.2271469E4,0E0,4.883875E3,3.9153906E3,9.65228E5,2.688234E5,6.771992E4,6.0175E4,0E0,1.35790625E4,1.6105847E4,0E0,1.5435562E5,4.78268E5,4.5547125E4,0E0,1.2237366E4,2.0971094E3,3.032664E3,1.4829357E4,2.2118406E4,0E0,0E0,0E0,3.4177422E3,0E0,2.9019853E5,4.13504E5,4.834196E4,1.9382455E5,6.588617E3,1.0857311E4,3.4366438E4,0E0,0E0,0E0,0E0,0E0,0E0,0E0,0E0,0E0,0E0,0E0,0E0,0E0,0E0,0E0,0E0,0E0,0E0,0E0,0E0,0E0,0E0,0E0,0E0,0E0,0E0,0E0,0E0,0E0,0E0,0E0,0E0,0E0,0E0,0E0,0E0,0E0],"parents":[2147483647,0,0,1,1,2,2,3,3,4,4,5,5,6,6,7,7,8,8,9,9,10,10,12,12,13,13,14,14,15,15,16,16,17,17,18,18,19,19,20,20,21,21,23,23,24,24,25,25,26,26,27,27,28,28,30,30,31,31,33,33,34,34,35,35,37,37,38,38,39,39,40,40,41,41,45,45,47,47,48,48,49,49,50,50,51,51,52,52,53,53],"right_children":[2,4,6,8,10,12,14,16,18,20,22,-1,24,26,28,30,32,34,36,38,40,42,-1,44,46,48,50,52,54,-1,56,58,-1,60,62,64,-1,66,68,70,72,74,-1,-1,-1,76,-1,78,80,82,84,86,88,90,-1,-1,-1,-1,-1,-1,-1,-1,-1,-1,-1,-1,-1,-1,-1,-1,-1,-1,-1,-1,-1,-1,-1,-1,-1,-1,-1,-1,-1,-1,-1,-1,-1,-1,-1,-1,-1],"split_conditions":[7.5E1,1.6E1,7E0,8E0,1.7E1,6E0,1.6E1,7E0,1.5E1,2.61E1,1.8E1,-4.1088004E0,2.66E1,8.8E1,1.7E1,6E0,2.55E1,1.88E1,3.16E1,5.85E1,6.65E1,3.38E1,-4.102085E0,2.16E1,2.84E1,9E0,8E0,3E1,1.8E1,-4.092023E0,2.54E1,1.63E1,3.0373492E0,6.25E1,6.8E1,1.64E1,6.2072268E0,2.16E1,7E1,3.04E1,3.08E1,3.04E1,3.868883E0,-3.8732247E0,-3.1131866E0,2.5E-1,-1.5016726E0,1.79E1,1.4E1,2.68E1,1.5E0,7.55E1,3.06E1,2.88E1,-4.1085153E0,-3.3184133E0,-1.4652833E0,-2.0537393E0,9.3726486E-2,7.999102E0,4.358721E0,1.1009978E1,8.891433E0,-2.5541097E-2,3.4718308E0,-1.1652583E0,1.6031195E0,-1.2864939E0,-2.0166917E0,1.8116627E0,3.1812294E0,-2.732258E-2,1.4597596E0,-3.2583008E0,-1.7656876E0,-2.3498094E0,-1.5595119E-1,-1.3814472E0,2.7715383E0,6.8097205E0,3.3133626E0,-1.9593428E0,3.2740736E-1,1.7275734E0,-2.273418E0,4.1551873E-1,-1.561652E0,2.4407578E-1,2.4625359E0,-3.4552586E0,-1.6572403E0],"split_indices":[1,3,3,3,3,3,3,3,3,0,3,0,0,1,3,3,0,0,0,1,1,0,0,0,0,3,3,0,3,0,0,0,0,1,1,0,0,0,1,0,0,0,0,0,0,2,0,0,3,0,2,1,0,0,0,0,0,0,0,0,0,0,0,0,0,0,0,0,0,0,0,0,0,0,0,0,0,0,0,0,0,0,0,0,0,0,0,0,0,0,0],"split_type":[0,0,0,0,0,0,0,0,0,0,0,0,0,0,0,0,0,0,0,0,0,0,0,0,0,0,0,0,0,0,0,0,0,0,0,0,0,0,0,0,0,0,0,0,0,0,0,0,0,0,0,0,0,0,0,0,0,0,0,0,0,0,0,0,0,0,0,0,0,0,0,0,0,0,0,0,0,0,0,0,0,0,0,0,0,0,0,0,0,0,0],"sum_hessian":[7.046E3,2.511E3,4.535E3,1.805E3,7.06E2,1.801E3,2.734E3,3.04E2,1.501E3,1.71E2,5.35E2,1.537E3,2.64E2,1.083E3,1.651E3,2.38E2,6.6E1,1.314E3,1.87E2,7.4E1,9.7E1,1.32E2,4.03E2,1.73E2,9.1E1,6.4E2,4.43E2,1.3E2,1.521E3,1.91E2,4.7E1,3.4E1,3.2E1,1.62E2,1.152E3,1.41E2,4.6E1,1.6E1,5.8E1,3.1E1,6.6E1,1.31E2,1E0,9.8E1,7.5E1,4.7E1,4.4E1,2.18E2,4.22E2,1.26E2,3.17E2,1.08E2,2.2E1,1.48E2,1.373E3,2.8E1,1.9E1,1.8E1,1.6E1,4.1E1,1.21E2,5.78E2,5.74E2,1E1,1.31E2,1.1E1,5E0,3.3E1,2.5E1,1.2E1,1.9E1,3.3E1,3.3E1,9.1E1,4E1,4.5E1,2E0,5.6E1,1.62E2,3E2,1.22E2,9.6E1,3E1,2.84E2,3.3E1,4E0,1.04E2,1E1,1.2E1,1.09E2,3.9E1],"tree_param":{"num_deleted":"0","num_feature":"4","num_nodes":"91","size_leaf_vector":"1"}},{"base_weights":[6.3327192E-3,7.769275E1,-4.3015774E1,1.2896234E2,-5.3383034E1,-7.5033295E1,-2.1904774E1,-5.287691E1,1.6580122E2,3.924523E0,-7.167318E1,-3.903494E0,-5.7126503E1,5.3738705E1,-7.1526825E1,-7.2476265E1,1.7826405E1,1.7853896E2,7.582298E1,-2.5508125E1,2.6409462E1,-5.2068554E1,-3.8974884E0,-6.774692E1,-3.6419132E1,8.7060356E1,1.4060893E1,-1.8436659E1,-7.604935E1,-3.8884869E0,-4.9792435E1,-2.0373892E1,5.7801678E1,1.0122182E2,1.8931445E2,6.1306057E1,5.9034686E0,-1.2658463E1,-3.477628E1,5.19169E1,1.3832635E1,-5.3606094E1,3.7721612E0,-3.6968014E0,-2.9775252E0,-4.2461926E1,-2.7866835E1,3.4027077E1,1.1444608E2,-2.5728899E1,2.916406E1,-2.8230892E1,2.8781082E1,-5.6953724E1,-3.903239E0,-3.1582139E0,-1.3956822E0,-2.0756304E0,-1.9399783E-2,1.8919547E0,3.0860434E0,7.6086693E0,4.1425714E0,1.046043E1,8.447635E0,4.384049E0,2.408317E0,-1.3269752E0,-1.154405E-1,-2.2569687E0,-1.4108438E0,1.7280476E0,3.030121E0,-2.5996713E-2,1.3889182E0,-3.0971565E0,-1.6795565E0,-2.198975E0,-1.5075277E-1,-7.4007845E-1,-1.4439627E0,-1.0976292E0,2.9487438E0,6.314607E0,2.2434356E0,-1.8115095E0,2.9550052E-1,2.204457E0,-5.593786E-1,-1.6758944E0,-8.0475104E-1,2.3298159E-1,2.3488805E0,-3.284066E0,-1.5764498E0],"categories":[],"categories_nodes":[],"categories_segments":[],"categories_sizes":[],"default_left":[0,0,0,0,0,0,0,0,0,0,0,0,0,0,0,0,0,0,0,0,0,0,0,0,0,0,0,0,0,0,0,0,0,0,0,0,0,0,0,0,0,0,0,0,0,0,0,0,0,0,0,0,0,0,0,0,0,0,0,0,0,0,0,0,0,0,0,0,0,0,0,0,0,0,0,0,0,0,0,0,0,0,0,0,0,0,0,0,0,0,0,0,0,0,0],"id":3,"left_children":[1,3,5,7,9,11,13,15,17,19,21,-1,23,25,27,29,31,33,35,37,39,41,-1,43,45,47,49,51,53,-1,55,57,59,61,63,65,-1,67,69,71,73,75,-1,-1,-1,77,79,81,83,85,87,89,91,93,-1,-1,-1,-1,-1,-1,-1,-1,-1,-1,-1,-1,-1,-1,-1,-1,-1,-1,-1,-1,-1,-1,-1,-1,-1,-1,-1,-1,-1,-1,-1,-1,-1,-1,-1,-1,-1,-1,-1,-1,-1],"loss_changes":[2.355606E7,1.6888032E7,3.064338E6,1.2106722E7,7.4133275E5,9.3525E4,1.0269897E7,4.239425E5,1.707932E6,1.14501766E5,6.189625E4,0E0,5.581175E4,1.431965E6,3.95245E5,2.482575E4,1.0349116E5,1.076408E6,1.0805975E5,8.49173E3,3.0720508E4,3.0119438E4,0E0,4.4238125E3,3.5712578E3,8.51543E5,2.988225E5,6.1394977E4,5.413E4,0E0,1.2279734E4,1.4770559E4,2.4636719E2,1.3996025E5,4.31708E5,4.4988125E4,0E0,4.6796367E3,1.6492695E3,2.7293828E3,1.3424964E4,1.9945531E4,0E0,0E0,0E0,2.9803047E3,1.1486914E2,2.834017E5,3.141295E5,4.573229E4,2.1730372E5,6.4542188E3,9.876414E3,3.099175E4,0E0,0E0,0E0,0E0,0E0,0E0,0E0,0E0,0E0,0E0,0E0,0E0,0E0,0E0,0E0,0E0,0E0,0E0,0E0,0E0,0E0,0E0,0E0,0E0,0E0,0E0,0E0,0E0,0E0,0E0,0E0,0E0,0E0,0E0,0E0,0E0,0E0,0E0,0E0,0E0,0E0],"parents":[2147483647,0,0,1,1,2,2,3,3,4,4,5,5,6,6,7,7,8,8,9,9,10,10,12,12,13,13,14,14,15,15,16,16,17,17,18,18,19,19,20,20,21,21,23,23,24,24,25,25,26,26,27,27,28,28,30,30,31,31,32,32,33,33,34,34,35,35,37,37,38,38,39,39,40,40,41,41,45,45,46,46,47,47,48,48,49,49,50,50,51,51,52,52,53,53],"right_children":[2,4,6,8,10,12,14,16,18,20,22,-1,24,26,28,30,32,34,36,38,40,42,-1,44,46,48,50,52,54,-1,56,58,60,62,64,66,-1,68,70,72,74,76,-1,-1,-1,78,80,82,84,86,88,90,92,94,-1,-1,-1,-1,-1,-1,-1,-1,-1,-1,-1,-1,-1,-1,-1,-1,-1,-1,-1,-1,-1,-1,-1,-1,-1,-1,-1,-1,-1,-1,-1,-1,-1,-1,-1,-1,-1,-1,-1,-1,-1],"split_conditions":[7.5E1,1.6E1,7E0,8E0,1.7E1,6E0,1.6E1,7E0,1.5E1,2.61E1,1.8E1,-3.903494E0,2.66E1,8.65E1,1.7E1,6E0,2.55E1,1.88E1,3.16E1,6.4E1,6.65E1,3.38E1,-3.8974884E0,2.1E1,2.85E1,9E0,8E0,3E1,1.8E1,-3.8884869E0,2.54E1,1.59E1,2.88E1,6.25E1,6.8E1,6.4E1,5.9034686E0,1.99E1,1.95E1,3.04E1,3.08E1,3.04E1,3.7721612E0,-3.6968014E0,-2.9775252E0,2.5E-1,2.86E1,2.02E1,1.5E1,2.68E1,2.5E-1,2.65E1,3.06E1,2.88E1,-3.903239E0,-3.1582139E0,-1.3956822E0,-2.0756304E0,-1.9399783E-2,1.8919547E0,3.0860434E0,7.6086693E0,4.1425714E0,1.046043E1,8.447635E0,4.384049E0,2.408317E0,-1.3269752E0,-1.154405E-1,-2.2569687E0,-1.4108438E0,1.7280476E0,3.030121E0,-2.5996713E-2,1.3889182E0,-3.0971565E0,-1.6795565E0,-2.198975E0,-1.5075277E-1,-7.4007845E-1,-1.4439627E0,-1.0976292E0,2.9487438E0,6.314607E0,2.2434356E0,-1.8115095E0,2.9550052E-1,2.204457E0,-5.593786E-1,-1.6758944E0,-8.0475104E-1,2.3298159E-1,2.3488805E0,-3.284066E0,-1.5764498E0],"split_indices":[1,3,3,3,3,3,3,3,3,0,3,0,0,1,3,3,0,0,0,1,1,0,0,0,0,3,3,0,3,0,0,0,0,1,1,1,0,0,0,0,0,0,0,0,0,2,0,0,3,0,2,0,0,0,0,0,0,0,0,0,0,0,0,0,0,0,0,0,0,0,0,0,0,0,0,0,0,0,0,0,0,0,0,0,0,0,0,0,0,0,0,0,0,0,0],"split_type":[0,0,0,0,0,0,0,0,0,0,0,0,0,0,0,0,0,0,0,0,0,0,0,0,0,0,0,0,0,0,0,0,0,0,0,0,0,0,0,0,0,0,0,0,0,0,0,0,0,0,0,0,0,0,0,0,0,0,0,0,0,0,0,0,0,0,0,0,0,0,0,0,0,0,0,0,0,0,0,0,0,0,0,0,0,0,0,0,0,0,0,0,0,0,0],"sum_hessian":[7.046E3,2.511E3,4.535E3,1.805E3,7.06E2,1.801E3,2.734E3,3.04E2,1.501E3,1.71E2,5.35E2,1.537E3,2.64E2,1.083E3,1.651E3,2.38E2,6.6E1,1.314E3,1.87E2,7.4E1,9.7E1,1.32E2,4.03E2,1.73E2,9.1E1,5.88E2,4.95E2,1.3E2,1.521E3,1.91E2,4.7E1,3.4E1,3.2E1,1.62E2,1.152E3,1.41E2,4.6E1,3.2E1,4.2E1,3.1E1,6.6E1,1.31E2,1E0,9.4E1,7.9E1,5.1E1,4E1,2.01E2,3.87E2,1.36E2,3.59E2,1.08E2,2.2E1,1.48E2,1.373E3,2.8E1,1.9E1,1.6E1,1.8E1,7E0,2.5E1,4.1E1,1.21E2,5.78E2,5.74E2,4.5E1,9.6E1,1.3E1,1.9E1,1.4E1,2.8E1,1.2E1,1.9E1,3.3E1,3.3E1,9.1E1,4E1,4.9E1,2E0,4E0,3.6E1,6.2E1,1.39E2,3.3E2,5.7E1,1.02E2,3.4E1,2.62E2,9.7E1,7.4E1,3.4E1,1E1,1.2E1,1.09E2,3.9E1],"tree_param":{"num_deleted":"0","num_feature":"4","num_nodes":"95","size_leaf_vector":"1"}},{"base_weights":[8.948514E-3,7.382161E1,-4.0867905E1,1.2253515E2,-5.0719383E1,-7.1290016E1,-2.0808851E1,-5.0251293E1,1.5754002E2,3.734173E0,-6.809866E1,-3.7084463E0,-5.4312473E1,5.106149E1,-6.795573E1,-6.888777E1,1.6978113E1,1.6963531E2,7.2099365E1,-2.4300856E1,2.515145E1,-4.947268E1,-3.7030962E0,-6.439793E1,-3.4647457E1,7.7152725E1,4.9897413E0,-1.7514053E1,-7.225264E1,-3.6950753E0,-4.7397686E1,-1.9415054E1,5.506244E1,9.623282E1,1.7986513E2,5.8288586E1,5.6145754E0,-4.315832E0,-2.9647373E1,4.946975E1,1.3161345E1,-5.0961975E1,3.677857E0,-3.5330834E0,-5.700811E1,-4.0955692E1,-1.3574365E0,-2.357897E0,9.400587E1,-2.710712E1,1.7879263E1,-2.6842106E1,2.7454285E1,-5.413866E1,-3.7082193E0,-3.0057485E0,-1.3293872E0,-1.776667E0,2.2224405E-1,1.8091818E0,2.937676E0,3.0166698E0,5.9714007E0,5.2529864E0,9.252316E0,-1.6079082E-1,3.1486187E0,-1.0762713E0,1.5411329E0,-2.2208264E0,-1.3050297E0,2.0455656E0,3.5015569E0,-2.4735272E-2,1.3215148E0,-3.175298E0,-1.9110984E0,-7.7936804E-1,-2.8657825E0,-2.1273148E0,-1.457278E-1,-2.2117956E0,1.0090505E0,5.13023E0,1.64934E0,-1.9574175E0,-2.0765841E-1,1.3057489E0,-2.1359441E0,4.5722228E-1,-1.4150056E0,2.2239165E-1,2.2404706E0,-3.1213555E0,-1.499598E0],"categories":[],"categories_nodes":[],"categories_segments":[],"categories_sizes":[],"default_left":[0,0,0,0,0,0,0,0,0,0,0,0,0,0,0,0,0,0,0,0,0,0,0,0,0,0,0,0,0,0,0,0,0,0,0,0,0,0,0,0,0,0,0,0,0,0,0,0,0,0,0,0,0,0,0,0,0,0,0,0,0,0,0,0,0,0,0,0,0,0,0,0,0,0,0,0,0,0,0,0,0,0,0,0,0,0,0,0,0,0,0,0,0,0,0],"id":4,"left_children":[1,3,5,7,9,11,13,15,17,19,21,-1,23,25,27,29,31,33,35,37,39,41,-1,43,45,47,49,51,53,-1,55,57,59,61,63,65,-1,67,69,71,73,75,-1,-1,77,79,-1,81,83,85,87,89,91,93,-1,-1,-1,-1,-1,-1,-1,-1,-1,-1,-1,-1,-1,-1,-1,-1,-1,-1,-1,-1,-1,-1,-1,-1,-1,-1,-1,-1,-1,-1,-1,-1,-1,-1,-1,-1,-1,-1,-1,-1,-1],"loss_changes":[2.1265432E7,1.5246098E7,2.76656E6,1.0931274E7,6.693335E5,8.4048E4,9.270914E6,3.8330994E5,1.53998E6,1.0388584E5,5.587025E4,0E0,5.0326312E4,1.3026578E6,3.56794E5,2.22485E4,9.393167E4,9.70116E5,9.7810625E4,7.8858203E3,2.7923645E4,2.8117938E4,0E0,4.0258125E3,3.2400469E3,9.2750425E5,1.6307394E5,5.5687113E4,4.8691E4,0E0,1.110468E4,1.3618285E4,1.7363281E2,1.28523625E5,4.27444E5,4.1108938E4,0E0,1.0943695E4,1.9312891E3,2.7660781E3,1.2153573E4,1.8667656E4,0E0,0E0,1.8940625E2,2.7803984E3,0E0,1.1604666E5,2.96212E5,3.1069906E4,1.4135402E5,5.977867E3,8.984135E3,2.7948344E4,0E0,0E0,0E0,0E0,0E0,0E0,0E0,0E0,0E0,0E0,0E0,0E0,0E0,0E0,0E0,0E0,0E0,0E0,0E0,0E0,0E0,0E0,0E0,0E0,0E0,0E0,0E0,0E0,0E0,0E0,0E0,0E0,0E0,0E0,0E0,0E0,0E0,0E0,0E0,0E0,0E0],"parents":[2147483647,0,0,1,1,2,2,3,3,4,4,5,5,6,6,7,7,8,8,9,9,10,10,12,12,13,13,14,14,15,15,16,16,17,17,18,18,19,19,20,20,21,21,23,23,24,24,25,25,26,26,27,27,28,28,30,30,31,31,32,32,33,33,34,34,35,35,37,37,38,38,39,39,40,40,41,41,44,44,45,45,47,47,48,48,49,49,50,50,51,51,52,52,53,53],"right_children":[2,4,6,8,10,12,14,16,18,20,22,-1,24,26,28,30,32,34,36,38,40,42,-1,44,46,48,50,52,54,-1,56,58,60,62,64,66,-1,68,70,72,74,76,-1,-1,78,80,-1,82,84,86,88,90,92,94,-1,-1,-1,-1,-1,-1,-1,-1,-1,-1,-1,-1,-1,-1,-1,-1,-1,-1,-1,-1,-1,-1,-1,-1,-1,-1,-1,-1,-1,-1,-1,-1,-1,-1,-1,-1,-1,-1,-1,-1,-1],"split_conditions":[7.5E1,1.6E1,7E0,8E0,1.7E1,6E0,1.6E1,7E0,1.5E1,2.61E1,1.8E1,-3.7084463E0,2.66E1,8.9E1,1.7E1,6E0,2.55E1,1.88E1,3.16E1,5.85E1,6.65E1,3.38E1,-3.7030962E0,2.01E1,2.84E1,8E0,8E0,3E1,1.8E1,-3.6950753E0,2.54E1,1.67E1,2.88E1,1.6E1,9E0,1.64E1,5.6145754E0,2.16E1,1.58E1,3.31E1,3.08E1,2.74E1,3.677857E0,-3.5330834E0,2.02E1,2.5E-1,-1.3574365E0,2.3E1,1.5E1,2.59E1,1.5E0,7.55E1,3.06E1,2.88E1,-3.7082193E0,-3.0057485E0,-1.3293872E0,-1.776667E0,2.2224405E-1,1.8091818E0,2.937676E0,3.0166698E0,5.9714007E0,5.2529864E0,9.252316E0,-1.6079082E-1,3.1486187E0,-1.0762713E0,1.5411329E0,-2.2208264E0,-1.3050297E0,2.0455656E0,3.5015569E0,-2.4735272E-2,1.3215148E0,-3.175298E0,-1.9110984E0,-7.7936804E-1,-2.8657825E0,-2.1273148E0,-1.457278E-1,-2.2117956E0,1.0090505E0,5.13023E0,1.64934E0,-1.9574175E0,-2.0765841E-1,1.3057489E0,-2.1359441E0,4.5722228E-1,-1.4150056E0,2.2239165E-1,2.2404706E0,-3.1213555E0,-1.499598E0],"split_indices":[1,3,3,3,3,3,3,3,3,0,3,0,0,1,3,3,0,0,0,1,1,0,0,0,0,3,3,0,3,0,0,0,0,0,3,0,0,0,0,0,0,0,0,0,0,2,0,0,3,0,2,1,0,0,0,0,0,0,0,0,0,0,0,0,0,0,0,0,0,0,0,0,0,0,0,0,0,0,0,0,0,0,0,0,0,0,0,0,0,0,0,0,0,0,0],"split_type":[0,0,0,0,0,0,0,0,0,0,0,0,0,0,0,0,0,0,0,0,0,0,0,0,0,0,0,0,0,0,0,0,0,0,0,0,0,0,0,0,0,0,0,0,0,0,0,0,0,0,0,0,0,0,0,0,0,0,0,0,0,0,0,0,0,0,0,0,0,0,0,0,0,0,0,0,0,0,0,0,0,0,0,0,0,0,0,0,0,0,0,0,0,0,0],"sum_hessian":[7.046E3,2.511E3,4.535E3,1.805E3,7.06E2,1.801E3,2.734E3,3.04E2,1.501E3,1.71E2,5.35E2,1.537E3,2.64E2,1.083E3,1.651E3,2.38E2,6.6E1,1.314E3,1.87E2,7.4E1,9.7E1,1.32E2,4.03E2,1.73E2,9.1E1,6.91E2,3.92E2,1.3E2,1.521E3,1.91E2,4.7E1,3.4E1,3.2E1,1.62E2,1.152E3,1.41E2,4.6E1,1.6E1,5.8E1,3.1E1,6.6E1,1.31E2,1E0,8.9E1,8.4E1,4.7E1,4.4E1,1.21E2,5.7E2,1.12E2,2.8E2,1.08E2,2.2E1,1.48E2,1.373E3,2.8E1,1.9E1,2E1,1.4E1,7E0,2.5E1,6.5E1,9.7E1,7.6E1,1.076E3,1E1,1.31E2,1.1E1,5E0,9E0,4.9E1,2.4E1,7E0,3.3E1,3.3E1,6.4E1,6.7E1,1E0,8.3E1,4.5E1,2E0,4.2E1,7.9E1,4.99E2,7.1E1,7.3E1,3.9E1,2.47E2,3.3E1,4E0,1.04E2,1E1,1.2E1,1.09E2,3.9E1],"tree_param":{"num_deleted":"0","num_feature":"4","num_nodes":"95","size_leaf_vector":"1"}},{"base_weights":[9.517598E-3,7.014085E1,-3.8828648E1,1.16423485E2,-4.8185295E1,-6.7733574E1,-1.9769958E1,-4.775459E1,1.496844E2,3.569458E0,-6.470326E1,-3.5231445E0,-5.1637638E1,4.8510796E1,-6.456207E1,-6.547698E1,1.6176855E1,1.6117142E2,6.854015E1,-2.3126625E1,2.396371E1,-4.7009636E1,-3.5183995E0,-6.1219288E1,-3.2954548E1,7.881591E1,1.2425665E1,-1.6626858E1,-6.8645485E1,-3.5112836E0,-4.5118122E1,-1.8488716E1,5.2453163E1,9.368865E1,1.7124434E2,5.4485374E1,1.04251E2,-1.12835045E1,-3.1677704E1,4.716961E1,1.252263E1,-4.845241E1,3.5859106E0,-3.3292172E0,-5.342508E1,-4.1504623E1,-2.7702765E1,2.978305E1,1.041402E2,-2.3387112E1,2.6019901E1,-2.5508783E1,2.6188654E1,-5.146274E1,-3.5229433E0,-2.8606436E0,-1.2662414E0,-1.8943459E0,-7.966976E-3,1.7300301E0,2.7964416E0,1.0455717E0,5.2076735E0,9.616054E0,7.682691E0,5.5171733E0,2.4366567E0,5.395536E0,2.4133775E0,-1.2064065E0,-8.640463E-2,-2.0663211E0,-1.2797327E0,1.9473785E0,3.3483639E0,-2.3534922E-2,1.2573823E0,-3.0189755E0,-1.8169488E0,-1.9468037E0,-2.7766697E0,-2.1954844E0,-1.4087015E-1,3.862333E0,-1.5395417E0,-1.3761271E0,2.5438907E0,5.744094E0,2.0521524E0,-1.6484131E0,2.7385226E-1,1.9822314E0,-5.4049605E-1,-1.5271542E0,-6.9960886E-1,2.1228305E-1,2.1370645E0,-2.9667065E0,-1.4264927E0],"categories":[],"categories_nodes":[],"categories_segments":[],"categories_sizes":[],"default_left":[0,0,0,0,0,0,0,0,0,0,0,0,0,0,0,0,0,0,0,0,0,0,0,0,0,0,0,0,0,0,0,0,0,0,0,0,0,0,0,0,0,0,0,0,0,0,0,0,0,0,0,0,0,0,0,0,0,0,0,0,0,0,0,0,0,0,0,0,0,0,0,0,0,0,0,0,0,0,0,0,0,0,0,0,0,0,0,0,0,0,0,0,0,0,0,0,0,0,0],"id":5,"left_children":[1,3,5,7,9,11,13,15,17,19,21,-1,23,25,27,29,31,33,35,37,39,41,-1,43,45,47,49,51,53,-1,55,57,59,61,63,65,67,69,71,73,75,77,-1,-1,79,81,83,85,87,89,91,93,95,97,-1,-1,-1,-1,-1,-1,-1,-1,-1,-1,-1,-1,-1,-1,-1,-1,-1,-1,-1,-1,-1,-1,-1,-1,-1,-1,-1,-1,-1,-1,-1,-1,-1,-1,-1,-1,-1,-1,-1,-1,-1,-1,-1,-1,-1],"loss_changes":[1.9197148E7,1.3762442E7,2.497497E6,9.86919E6,6.046336E5,7.5525E4,8.367964E6,3.4662975E5,1.388976E6,9.419903E4,5.0415E4,0E0,4.5421438E4,1.1844442E6,3.222195E5,1.99375E4,8.52249E4,8.77828E5,8.867856E4,7.237922E3,2.5428367E4,2.6257469E4,0E0,3.71875E3,2.9812969E3,7.2827275E5,2.4208478E5,5.0485266E4,4.37975E4,0E0,1.0042047E4,1.2438455E4,1.1246875E2,1.29578875E5,3.94216E5,3.8642E4,5.4453125E3,4.008582E3,1.4660938E3,2.6006562E3,1.1002582E4,1.6876969E4,0E0,0E0,1.5934375E2,2.9467812E3,2.1823953E4,2.4558753E5,2.582595E5,3.8068164E4,1.8107512E5,5.89225E3,8.172463E3,2.520375E4,0E0,0E0,0E0,0E0,0E0,0E0,0E0,0E0,0E0,0E0,0E0,0E0,0E0,0E0,0E0,0E0,0E0,0E0,0E0,0E0,0E0,0E0,0E0,0E0,0E0,0E0,0E0,0E0,0E0,0E0,0E0,0E0,0E0,0E0,0E0,0E0,0E0,0E0,0E0,0E0,0E0,0E0,0E0,0E0,0E0],"parents":[2147483647,0,0,1,1,2,2,3,3,4,4,5,5,6,6,7,7,8,8,9,9,10,10,12,12,13,13,14,14,15,15,16,16,17,17,18,18,19,19,20,20,21,21,23,23,24,24,25,25,26,26,27,27,28,28,30,30,31,31,32,32,33,33,34,34,35,35,36,36,37,37,38,38,39,39,40,40,41,41,44,44,45,45,46,46,47,47,48,48,49,49,50,50,51,51,52,52,53,53],"right_children":[2,4,6,8,10,12,14,16,18,20,22,-1,24,26,28,30,32,34,36,38,40,42,-1,44,46,48,50,52,54,-1,56,58,60,62,64,66,68,70,72,74,76,78,-1,-1,80,82,84,86,88,90,92,94,96,98,-1,-1,-1,-1,-1,-1,-1,-1,-1,-1,-1,-1,-1,-1,-1,-1,-1,-1,-1,-1,-1,-1,-1,-1,-1,-1,-1,-1,-1,-1,-1,-1,-1,-1,-1,-1,-1,-1,-1,-1,-1,-1,-1,-1,-1],"split_conditions":[7.5E1,1.6E1,7E0,8E0,1.7E1,6E0,1.6E1,7E0,1.5E1,2.61E1,1.8E1,-3.5231445E0,2.66E1,8.65E1,1.7E1,6E0,2.55E1,1.91E1,3.14E1,6.4E1,6.65E1,3.38E1,-3.5183995E0,2.16E1,2.78E1,9E0,8E0,3E1,1.8E1,-3.5112836E0,2.54E1,1.59E1,2.88E1,9E0,6.7E1,5.4E1,7.15E1,1.99E1,1.95E1,3.31E1,3.08E1,2.74E1,3.5859106E0,-3.3292172E0,8.25E1,2.5E-1,2.79E1,1.79E1,1.5E1,2.68E1,2.5E-1,2.65E1,3.06E1,2.88E1,-3.5229433E0,-2.8606436E0,-1.2662414E0,-1.8943459E0,-7.966976E-3,1.7300301E0,2.7964416E0,1.0455717E0,5.2076735E0,9.616054E0,7.682691E0,5.5171733E0,2.4366567E0,5.395536E0,2.4133775E0,-1.2064065E0,-8.640463E-2,-2.0663211E0,-1.2797327E0,1.9473785E0,3.3483639E0,-2.3534922E-2,1.2573823E0,-3.0189755E0,-1.8169488E0,-1.9468037E0,-2.7766697E0,-2.1954844E0,-1.4087015E-1,3.862333E0,-1.5395417E0,-1.3761271E0,2.5438907E0,5.744094E0,2.0521524E0,-1.6484131E0,2.7385226E-1,1.9822314E0,-5.4049605E-1,-1.5271542E0,-6.9960886E-1,2.1228305E-1,2.1370645E0,-2.9667065E0,-1.4264927E0],"split_indices":[1,3,3,3,3,3,3,3,3,0,3,0,0,1,3,3,0,0,0,1,1,0,0,0,0,3,3,0,3,0,0,0,0,3,1,1,1,0,0,0,0,0,0,0,1,2,0,0,3,0,2,0,0,0,0,0,0,0,0,0,0,0,0,0,0,0,0,0,0,0,0,0,0,0,0,0,0,0,0,0,0,0,0,0,0,0,0,0,0,0,0,0,0,0,0,0,0,0,0],"split_type":[0,0,0,0,0,0,0,0,0,0,0,0,0,0,0,0,0,0,0,0,0,0,0,0,0,0,0,0,0,0,0,0,0,0,0,0,0,0,0,0,0,0,0,0,0,0,0,0,0,0,0,0,0,0,0,0,0,0,0,0,0,0,0,0,0,0,0,0,0,0,0,0,0,0,0,0,0,0,0,0,0,0,0,0,0,0,0,0,0,0,0,0,0,0,0,0,0,0,0],"sum_hessian":[7.046E3,2.511E3,4.535E3,1.805E3,7.06E2,1.801E3,2.734E3,3.04E2,1.501E3,1.71E2,5.35E2,1.537E3,2.64E2,1.083E3,1.651E3,2.38E2,6.6E1,1.314E3,1.87E2,7.4E1,9.7E1,1.32E2,4.03E2,1.73E2,9.1E1,5.88E2,4.95E2,1.3E2,1.521E3,1.91E2,4.7E1,3.4E1,3.2E1,1.72E2,1.142E3,1.36E2,5.1E1,3.2E1,4.2E1,3.1E1,6.6E1,1.31E2,1E0,9.8E1,7.5E1,3.2E1,5.9E1,2.01E2,3.87E2,1.36E2,3.59E2,1.08E2,2.2E1,1.48E2,1.373E3,2.8E1,1.9E1,1.6E1,1.8E1,7E0,2.5E1,2.2E1,1.5E2,5.15E2,6.27E2,1.1E1,1.25E2,4.7E1,4E0,1.3E1,1.9E1,1.4E1,2.8E1,2.4E1,7E0,3.3E1,3.3E1,6.4E1,6.7E1,1.2E1,6.3E1,3E1,2E0,1E0,5.8E1,5.4E1,1.47E2,3.3E2,5.7E1,1.02E2,3.4E1,2.62E2,9.7E1,7.4E1,3.4E1,1E1,1.2E1,1.09E2,3.9E1],"tree_param":{"num_deleted":"0","num_feature":"4","num_nodes":"99","size_leaf_vector":"1"}},{"base_weights":[1.2032223E-2,6.664632E1,-3.6889496E1,1.106213E2,-4.57801E1,-6.4353325E1,-1.878101E1,-4.5383297E1,1.4222635E2,3.4019768E0,-6.1476997E1,-3.3471017E0,-4.9086197E1,4.6093586E1,-6.1338688E1,-6.2235092E1,1.5407181E1,1.597702E2,9.349363E1,-2.2032146E1,2.2832153E1,-4.4668556E1,-3.342915E0,-5.82046E1,-3.1306965E1,7.96387E1,1.63704E1,-1.579458E1,-6.521841E1,-3.3366337E0,-4.2948193E1,-1.7618631E1,4.9967674E1,9.0273315E1,1.7011147E2,1.1803013E2,6.519699E1,-3.5960796E0,-2.6970808E1,4.497662E1,1.1914914E1,-4.6066425E1,3.4962628E0,-3.1644378E0,-5.0815975E1,-3.6702362E1,-2.370044E1,-1.1874545E0,9.5389305E1,-2.0272188E1,2.9320307E1,-2.4253775E1,2.4981369E1,-4.891909E1,-3.3469243E0,-2.7225435E0,-1.206095E0,-1.6198224E0,2.1224438E-1,1.6543416E0,2.6619973E0,9.9556607E-1,5.1348257E0,6.194769E0,9.094856E0,4.4330344E0,7.137872E0,1.913455E0,4.097879E0,-9.9498194E-1,1.4805193E0,-1.0449208E0,-1.6937144E0,1.4640019E0,2.6465285E0,-2.23927E-2,1.1963621E0,-2.673824E0,-1.4157712E0,-1.8569516E0,-2.6400054E0,-1.9003524E0,-1.3617453E-1,-5.9459597E-1,-1.2327818E0,-2.2418644E0,1.3268118E0,1.1727108E0,5.1494503E0,-1.5589932E0,5.4697793E-2,2.4360063E0,2.5981683E-1,4.917441E-1,-1.2823027E0,2.0263396E-1,2.038431E0,-2.8197198E0,-1.3569512E0],"categories":[],"categories_nodes":[],"categories_segments":[],"categories_sizes":[],"default_left":[0,0,0,0,0,0,0,0,0,0,0,0,0,0,0,0,0,0,0,0,0,0,0,0,0,0,0,0,0,0,0,0,0,0,0,0,0,0,0,0,0,0,0,0,0,0,0,0,0,0,0,0,0,0,0,0,0,0,0,0,0,0,0,0,0,0,0,0,0,0,0,0,0,0,0,0,0,0,0,0,0,0,0,0,0,0,0,0,0,0,0,0,0,0,0,0,0,0,0],"id":6,"left_children":[1,3,5,7,9,11,13,15,17,19,21,-1,23,25,27,29,31,33,35,37,39,41,-1,43,45,47,49,51,53,-1,55,57,59,61,63,65,67,69,71,73,75,77,-1,-1,79,81,83,85,87,89,91,93,95,97,-1,-1,-1,-1,-1,-1,-1,-1,-1,-1,-1,-1,-1,-1,-1,-1,-1,-1,-1,-1,-1,-1,-1,-1,-1,-1,-1,-1,-1,-1,-1,-1,-1,-1,-1,-1,-1,-1,-1,-1,-1,-1,-1,-1,-1],"loss_changes":[1.7330374E7,1.2424267E7,2.254672E6,8.910996E6,5.460174E5,6.79335E4,7.5539225E6,3.1340956E5,1.269214E6,8.550363E4,4.5495375E4,0E0,4.1139062E4,1.0795178E6,2.90876E5,1.7865875E4,7.735338E4,7.77354E5,2.7002525E5,6.7317188E3,2.3156246E4,2.4526156E4,0E0,3.32025E3,2.905836E3,6.4810125E5,2.7391684E5,4.5791945E4,3.9396E4,0E0,9.08107E3,1.1445846E4,6.1335938E1,1.2470275E5,4.99818E5,1.420295E5,8.171306E4,9.792757E3,1.7654023E3,2.445379E3,9.960594E3,1.58485E4,0E0,0E0,1.01453125E2,2.2017344E3,1.6925195E2,1.0284111E5,2.3047225E5,3.52254E4,1.9911516E5,5.4254727E3,7.434126E3,2.2728594E4,0E0,0E0,0E0,0E0,0E0,0E0,0E0,0E0,0E0,0E0,0E0,0E0,0E0,0E0,0E0,0E0,0E0,0E0,0E0,0E0,0E0,0E0,0E0,0E0,0E0,0E0,0E0,0E0,0E0,0E0,0E0,0E0,0E0,0E0,0E0,0E0,0E0,0E0,0E0,0E0,0E0,0E0,0E0,0E0,0E0],"parents":[2147483647,0,0,1,1,2,2,3,3,4,4,5,5,6,6,7,7,8,8,9,9,10,10,12,12,13,13,14,14,15,15,16,16,17,17,18,18,19,19,20,20,21,21,23,23,24,24,25,25,26,26,27,27,28,28,30,30,31,31,32,32,33,33,34,34,35,35,36,36,37,37,38,38,39,39,40,40,41,41,44,44,45,45,46,46,47,47,48,48,49,49,50,50,51,51,52,52,53,53],"right_children":[2,4,6,8,10,12,14,16,18,20,22,-1,24,26,28,30,32,34,36,38,40,42,-1,44,46,48,50,52,54,-1,56,58,60,62,64,66,68,70,72,74,76,78,-1,-1,80,82,84,86,88,90,92,94,96,98,-1,-1,-1,-1,-1,-1,-1,-1,-1,-1,-1,-1,-1,-1,-1,-1,-1,-1,-1,-1,-1,-1,-1,-1,-1,-1,-1,-1,-1,-1,-1,-1,-1,-1,-1,-1,-1,-1,-1,-1,-1,-1,-1,-1,-1],"split_conditions":[7.5E1,1.6E1,7E0,8E0,1.7E1,6E0,1.6E1,7E0,1.4E1,2.61E1,1.8E1,-3.3471017E0,2.66E1,8.45E1,1.7E1,6E0,2.55E1,1.88E1,1.5E1,5.85E1,6.65E1,3.38E1,-3.342915E0,2.16E1,2.85E1,8E0,8E0,3E1,1.8E1,-3.3366337E0,2.54E1,1.67E1,2.88E1,9E0,1E1,2.85E1,2.64E1,2.16E1,7E1,3.04E1,3.08E1,3.04E1,3.4962628E0,-3.1644378E0,8.25E1,2.5E-1,2.86E1,2.3E1,1.78E1,2.64E1,9.2E1,7.55E1,3.06E1,2.88E1,-3.3469243E0,-2.7225435E0,-1.206095E0,-1.6198224E0,2.1224438E-1,1.6543416E0,2.6619973E0,9.9556607E-1,5.1348257E0,6.194769E0,9.094856E0,4.4330344E0,7.137872E0,1.913455E0,4.097879E0,-9.9498194E-1,1.4805193E0,-1.0449208E0,-1.6937144E0,1.4640019E0,2.6465285E0,-2.23927E-2,1.1963621E0,-2.673824E0,-1.4157712E0,-1.8569516E0,-2.6400054E0,-1.9003524E0,-1.3617453E-1,-5.9459597E-1,-1.2327818E0,-2.2418644E0,1.3268118E0,1.1727108E0,5.1494503E0,-1.5589932E0,5.4697793E-2,2.4360063E0,2.5981683E-1,4.917441E-1,-1.2823027E0,2.0263396E-1,2.038431E0,-2.8197198E0,-1.3569512E0],"split_indices":[1,3,3,3,3,3,3,3,3,0,3,0,0,1,3,3,0,0,3,1,1,0,0,0,0,3,3,0,3,0,0,0,0,3,3,0,0,0,1,0,0,0,0,0,1,2,0,0,0,0,1,1,0,0,0,0,0,0,0,0,0,0,0,0,0,0,0,0,0,0,0,0,0,0,0,0,0,0,0,0,0,0,0,0,0,0,0,0,0,0,0,0,0,0,0,0,0,0,0],"split_type":[0,0,0,0,0,0,0,0,0,0,0,0,0,0,0,0,0,0,0,0,0,0,0,0,0,0,0,0,0,0,0,0,0,0,0,0,0,0,0,0,0,0,0,0,0,0,0,0,0,0,0,0,0,0,0,0,0,0,0,0,0,0,0,0,0,0,0,0,0,0,0,0,0,0,0,0,0,0,0,0,0,0,0,0,0,0,0,0,0,0,0,0,0,0,0,0,0,0,0],"sum_hessian":[7.046E3,2.511E3,4.535E3,1.805E3,7.06E2,1.801E3,2.734E3,3.04E2,1.501E3,1.71E2,5.35E2,1.537E3,2.64E2,1.083E3,1.651E3,2.38E2,6.6E1,1.102E3,3.99E2,7.4E1,9.7E1,1.32E2,4.03E2,1.73E2,9.1E1,5.08E2,5.75E2,1.3E2,1.521E3,1.91E2,4.7E1,3.4E1,3.2E1,1.44E2,9.58E2,2.12E2,1.87E2,1.6E1,5.8E1,3.1E1,6.6E1,1.31E2,1E0,9.8E1,7.5E1,5.1E1,4E1,8.3E1,4.25E2,1.5E2,4.25E2,1.08E2,2.2E1,1.48E2,1.373E3,2.8E1,1.9E1,2E1,1.4E1,7E0,2.5E1,2.2E1,1.22E2,1.97E2,7.61E2,9.9E1,1.13E2,7.3E1,1.14E2,1.1E1,5E0,3.3E1,2.5E1,1.2E1,1.9E1,3.3E1,3.3E1,9.1E1,4E1,1.2E1,6.3E1,4.9E1,2E0,4E0,3.6E1,3.2E1,5.1E1,4.1E1,3.84E2,9.9E1,5.1E1,2.35E2,1.9E2,4E0,1.04E2,1E1,1.2E1,1.09E2,3.9E1],"tree_param":{"num_deleted":"0","num_feature":"4","num_nodes":"99","size_leaf_vector":"1"}},{"base_weights":[1.4182209E-2,6.3327427E1,-3.5048183E1,1.0510942E2,-4.3492374E1,-6.114391E1,-1.7841766E1,-4.3128418E1,1.3514099E2,3.249502E0,-5.8410492E1,-3.1798553E0,-4.6675377E1,4.3794994E1,-5.827543E1,-5.915374E1,1.4680237E1,1.518011E2,8.88629E1,-2.0960579E1,2.1744467E1,-4.243959E1,-3.176183E0,-5.5338406E1,-2.9783617E1,6.638902E1,3.899667E0,-1.4993778E1,-6.1962433E1,-3.1706712E0,-4.0882633E1,-1.6777918E1,4.760009E1,8.5801926E1,1.6162183E2,1.12182945E2,6.1969116E1,-3.3877168E0,-2.5668682E1,4.285624E1,1.1336688E1,-4.379409E1,3.4088562E0,-3.037317E0,-4.896131E1,-3.776434E1,-2.4897825E1,-2.8666036E0,8.106993E1,-1.5058558E1,2.0833948E1,-2.304834E1,2.3829737E1,-4.650117E1,-3.1796997E0,-2.5911107E0,-1.1488055E0,-1.7289733E0,1.6416049E-3,1.5819639E0,2.5340168E0,9.47952E-1,4.8801713E0,4.282523E0,8.403186E0,4.213599E0,6.7841096E0,2.4457583E0,4.7584777E0,-9.4937867E-1,1.4188309E0,-1.9689629E0,-1.1206597E0,1.7552515E0,3.086087E0,-2.1306016E-2,1.1383032E0,-2.8459287E0,-1.7134285E0,-5.975426E-1,-2.462982E0,-1.9972986E0,-1.316353E-1,3.8132837E0,-1.395255E0,-1.8805059E0,8.963246E-1,4.448003E0,1.257574E0,-1.3194157E0,4.295374E-1,1.5449802E0,-1.9959465E0,-1.3921025E0,-6.05879E-1,1.934232E-1,1.9443495E0,-2.6800156E0,-1.2908E0],"categories":[],"categories_nodes":[],"categories_segments":[],"categories_sizes":[],"default_left":[0,0,0,0,0,0,0,0,0,0,0,0,0,0,0,0,0,0,0,0,0,0,0,0,0,0,0,0,0,0,0,0,0,0,0,0,0,0,0,0,0,0,0,0,0,0,0,0,0,0,0,0,0,0,0,0,0,0,0,0,0,0,0,0,0,0,0,0,0,0,0,0,0,0,0,0,0,0,0,0,0,0,0,0,0,0,0,0,0,0,0,0,0,0,0,0,0,0,0],"id":7,"left_children":[1,3,5,7,9,11,13,15,17,19,21,-1,23,25,27,29,31,33,35,37,39,41,-1,43,45,47,49,51,53,-1,55,57,59,61,63,65,67,69,71,73,75,77,-1,-1,79,81,83,85,87,89,91,93,95,97,-1,-1,-1,-1,-1,-1,-1,-1,-1,-1,-1,-1,-1,-1,-1,-1,-1,-1,-1,-1,-1,-1,-1,-1,-1,-1,-1,-1,-1,-1,-1,-1,-1,-1,-1,-1,-1,-1,-1,-1,-1,-1,-1,-1,-1],"loss_changes":[1.5645941E7,1.121599E7,2.0356365E6,8.045808E6,4.9318162E5,6.09925E4,6.818719E6,2.8342106E5,1.14455E6,7.747129E4,4.1074875E4,0E0,3.7130312E4,9.768549E5,2.62696E5,1.6008625E4,7.018368E4,7.01052E5,2.43914E5,6.1181562E3,2.1047367E4,2.2913188E4,0E0,3.0265E3,2.647039E3,7.0381325E5,1.2648398E5,4.1513766E4,3.5437E4,0E0,8.212039E3,1.0475143E4,1.8898438E1,1.1253225E5,4.5494E5,1.2826975E5,7.682344E4,8.962628E3,1.7508281E3,2.512629E3,9.017285E3,1.4551781E4,0E0,0E0,3.4982812E2,2.4240938E3,2.0381785E4,8.881009E4,2.4968975E5,5.006369E4,1.28429125E5,5.3741055E3,6.76249E3,2.0496438E4,0E0,0E0,0E0,0E0,0E0,0E0,0E0,0E0,0E0,0E0,0E0,0E0,0E0,0E0,0E0,0E0,0E0,0E0,0E0,0E0,0E0,0E0,0E0,0E0,0E0,0E0,0E0,0E0,0E0,0E0,0E0,0E0,0E0,0E0,0E0,0E0,0E0,0E0,0E0,0E0,0E0,0E0,0E0,0E0,0E0],"parents":[2147483647,0,0,1,1,2,2,3,3,4,4,5,5,6,6,7,7,8,8,9,9,10,10,12,12,13,13,14,14,15,15,16,16,17,17,18,18,19,19,20,20,21,21,23,23,24,24,25,25,26,26,27,27,28,28,30,30,31,31,32,32,33,33,34,34,35,35,36,36,37,37,38,38,39,39,40,40,41,41,44,44,45,45,46,46,47,47,48,48,49,49,50,50,51,51,52,52,53,53],"right_children":[2,4,6,8,10,12,14,16,18,20,22,-1,24,26,28,30,32,34,36,38,40,42,-1,44,46,48,50,52,54,-1,56,58,60,62,64,66,68,70,72,74,76,78,-1,-1,80,82,84,86,88,90,92,94,96,98,-1,-1,-1,-1,-1,-1,-1,-1,-1,-1,-1,-1,-1,-1,-1,-1,-1,-1,-1,-1,-1,-1,-1,-1,-1,-1,-1,-1,-1,-1,-1,-1,-1,-1,-1,-1,-1,-1,-1,-1,-1,-1,-1,-1,-1],"split_conditions":[7.5E1,1.6E1,7E0,8E0,1.7E1,6E0,1.6E1,7E0,1.4E1,2.61E1,1.8E1,-3.1798553E0,2.66E1,8.9E1,1.7E1,6E0,2.55E1,1.88E1,1.5E1,5.85E1,6.65E1,3.38E1,-3.176183E0,2.01E1,2.78E1,8E0,9E0,3E1,1.8E1,-3.1706712E0,2.54E1,1.59E1,2.88E1,9E0,9E0,2.85E1,3.14E1,2.16E1,1.58E1,3.31E1,3.08E1,2.51E1,3.4088562E0,-3.037317E0,2.02E1,2.5E-1,2.79E1,2.38E1,1.5E1,2.61E1,1.5E0,2.65E1,3.06E1,2.88E1,-3.1796997E0,-2.5911107E0,-1.1488055E0,-1.7289733E0,1.6416049E-3,1.5819639E0,2.5340168E0,9.47952E-1,4.8801713E0,4.282523E0,8.403186E0,4.213599E0,6.7841096E0,2.4457583E0,4.7584777E0,-9.4937867E-1,1.4188309E0,-1.9689629E0,-1.1206597E0,1.7552515E0,3.086087E0,-2.1306016E-2,1.1383032E0,-2.8459287E0,-1.7134285E0,-5.975426E-1,-2.462982E0,-1.9972986E0,-1.316353E-1,3.8132837E0,-1.395255E0,-1.8805059E0,8.963246E-1,4.448003E0,1.257574E0,-1.3194157E0,4.295374E-1,1.5449802E0,-1.9959465E0,-1.3921025E0,-6.05879E-1,1.934232E-1,1.9443495E0,-2.6800156E0,-1.2908E0],"split_indices":[1,3,3,3,3,3,3,3,3,0,3,0,0,1,3,3,0,0,3,1,1,0,0,0,0,3,3,0,3,0,0,0,0,3,3,0,0,0,0,0,0,0,0,0,0,2,0,0,3,0,2,0,0,0,0,0,0,0,0,0,0,0,0,0,0,0,0,0,0,0,0,0,0,0,0,0,0,0,0,0,0,0,0,0,0,0,0,0,0,0,0,0,0,0,0,0,0,0,0],"split_type":[0,0,0,0,0,0,0,0,0,0,0,0,0,0,0,0,0,0,0,0,0,0,0,0,0,0,0,0,0,0,0,0,0,0,0,0,0,0,0,0,0,0,0,0,0,0,0,0,0,0,0,0,0,0,0,0,0,0,0,0,0,0,0,0,0,0,0,0,0,0,0,0,0,0,0,0,0,0,0,0,0,0,0,0,0,0,0,0,0,0,0,0,0,0,0,0,0,0,0],"sum_hessian":[7.046E3,2.511E3,4.535E3,1.805E3,7.06E2,1.801E3,2.734E3,3.04E2,1.501E3,1.71E2,5.35E2,1.537E3,2.64E2,1.083E3,1.651E3,2.38E2,6.6E1,1.102E3,3.99E2,7.4E1,9.7E1,1.32E2,4.03E2,1.73E2,9.1E1,6.91E2,3.92E2,1.3E2,1.521E3,1.91E2,4.7E1,3.4E1,3.2E1,1.44E2,9.58E2,2.12E2,1.87E2,1.6E1,5.8E1,3.1E1,6.6E1,1.31E2,1E0,8.9E1,8.4E1,3.2E1,5.9E1,1.21E2,5.7E2,1.85E2,2.07E2,1.08E2,2.2E1,1.48E2,1.373E3,2.8E1,1.9E1,1.6E1,1.8E1,7E0,2.5E1,2.2E1,1.22E2,7.6E1,8.82E2,9.9E1,1.13E2,1.36E2,5.1E1,1.1E1,5E0,9E0,4.9E1,2.4E1,7E0,3.3E1,3.3E1,5.3E1,7.8E1,1E0,8.3E1,3E1,2E0,1E0,5.8E1,4.5E1,7.6E1,4.99E2,7.1E1,1.25E2,6E1,1.78E2,2.9E1,7.4E1,3.4E1,1E1,1.2E1,1.09E2,3.9E1],"tree_param":{"num_deleted":"0","num_feature":"4","num_nodes":"99","size_leaf_vector":"1"}},{"base_weights":[1.6111065E-2,6.017348E1,-3.3298557E1,9.987177E1,-4.1319157E1,-5.80917E1,-1.6951006E1,-4.0986824E1,1.284084E2,3.106435E0,-5.549804E1,-3.020966E0,-4.436353E1,4.1608364E1,-5.5365902E1,-5.6224968E1,1.3981875E1,1.4422783E2,8.446526E1,-1.9947487E1,2.0718044E1,-4.032626E1,-3.017767E0,-5.260653E1,-2.8291292E1,5.561398E0,6.484721E1,-1.424302E1,-5.886901E1,-3.0129633E0,-3.8916416E1,-1.5988373E1,2.2672405E0,8.1552025E1,1.5355397E2,1.06625435E2,5.890898E1,-9.473998E0,-2.7521385E1,4.0864723E1,1.0786526E1,-4.1638924E1,3.3236349E0,-2.8729281E0,-4.618716E1,-3.3840088E1,-2.1743881E1,-8.896744E0,4.9846733E1,9.638091E1,3.194545E1,-2.191425E1,2.2731197E1,-4.4202763E1,-3.0208306E0,-2.4660225E0,-1.0942373E0,-1.4768381E0,2.0226319E-1,1.5180671E0,4.788991E0,5.5476418E0,8.221103E0,2.5382888E0,5.866194E0,1.6984402E0,3.7222595E0,-1.0515608E0,-4.5512352E-2,-1.8289095E0,-1.0943909E0,1.6709995E0,2.9510708E0,-2.0271908E-2,1.0830619E0,-2.4242246E0,-1.2631274E0,-1.6575701E0,-2.4000034E0,-1.7572712E0,-1.2724738E-1,-1.1856899E0,-8.111563E-1,-1.2429289E0,5.503243E-1,1.3785957E0,3.6898801E0,5.7242656E0,2.5941834E0,2.2540684E0,-3.0612123E-1,5.198962E-1,-1.1622108E0,1.8463135E-1,1.8546101E0,-2.547233E0,-1.2278734E0],"categories":[],"categories_nodes":[],"categories_segments":[],"categories_sizes":[],"default_left":[0,0,0,0,0,0,0,0,0,0,0,0,0,0,0,0,0,0,0,0,0,0,0,0,0,0,0,0,0,0,0,0,0,0,0,0,0,0,0,0,0,0,0,0,0,0,0,0,0,0,0,0,0,0,0,0,0,0,0,0,0,0,0,0,0,0,0,0,0,0,0,0,0,0,0,0,0,0,0,0,0,0,0,0,0,0,0,0,0,0,0,0,0,0,0,0,0],"id":8,"left_children":[1,3,5,7,9,11,13,15,17,19,21,-1,23,25,27,29,31,33,35,37,39,41,-1,43,45,47,49,51,53,-1,55,57,-1,59,61,63,65,67,69,71,73,75,-1,-1,77,79,81,83,85,87,89,91,93,95,-1,-1,-1,-1,-1,-1,-1,-1,-1,-1,-1,-1,-1,-1,-1,-1,-1,-1,-1,-1,-1,-1,-1,-1,-1,-1,-1,-1,-1,-1,-1,-1,-1,-1,-1,-1,-1,-1,-1,-1,-1,-1,-1],"loss_changes":[1.4125057E7,1.0125186E7,1.8374885E6,7.264714E6,4.4551538E5,5.49005E4,6.154829E6,2.5626044E5,1.03194E6,7.024814E4,3.7065875E4,0E0,3.3619844E4,9.076951E5,2.37145E5,1.43438125E4,6.3701973E4,6.32206E5,2.2025175E5,5.6886504E3,1.9167746E4,2.1413281E4,0E0,2.7657188E3,2.6065625E3,2.7320434E5,6.8064275E5,3.765468E4,3.18745E4,0E0,7.4261406E3,9.619307E3,0E0,1.0269994E5,4.25766E5,1.2133525E5,7.031656E4,3.2469692E3,1.393334E3,2.353E3,8.1633115E3,1.3573094E4,0E0,0E0,2.9934375E2,1.8713867E3,1.0468359E2,1.0257045E5,5.3982906E4,2.6474025E5,1.6229428E5,4.925875E3,6.151532E3,1.8483469E4,0E0,0E0,0E0,0E0,0E0,0E0,0E0,0E0,0E0,0E0,0E0,0E0,0E0,0E0,0E0,0E0,0E0,0E0,0E0,0E0,0E0,0E0,0E0,0E0,0E0,0E0,0E0,0E0,0E0,0E0,0E0,0E0,0E0,0E0,0E0,0E0,0E0,0E0,0E0,0E0,0E0,0E0,0E0],"parents":[2147483647,0,0,1,1,2,2,3,3,4,4,5,5,6,6,7,7,8,8,9,9,10,10,12,12,13,13,14,14,15,15,16,16,17,17,18,18,19,19,20,20,21,21,23,23,24,24,25,25,26,26,27,27,28,28,30,30,31,31,33,33,34,34,35,35,36,36,37,37,38,38,39,39,40,40,41,41,44,44,45,45,46,46,47,47,48,48,49,49,50,50,51,51,52,52,53,53],"right_children":[2,4,6,8,10,12,14,16,18,20,22,-1,24,26,28,30,32,34,36,38,40,42,-1,44,46,48,50,52,54,-1,56,58,-1,60,62,64,66,68,70,72,74,76,-1,-1,78,80,82,84,86,88,90,92,94,96,-1,-1,-1,-1,-1,-1,-1,-1,-1,-1,-1,-1,-1,-1,-1,-1,-1,-1,-1,-1,-1,-1,-1,-1,-1,-1,-1,-1,-1,-1,-1,-1,-1,-1,-1,-1,-1,-1,-1,-1,-1,-1,-1],"split_conditions":[7.5E1,1.6E1,7E0,8E0,1.7E1,6E0,1.6E1,7E0,1.4E1,2.61E1,1.8E1,-3.020966E0,2.66E1,9E0,1.7E1,6E0,2.55E1,1.88E1,1.5E1,6.4E1,6.65E1,3.38E1,-3.017767E0,2.1E1,2.84E1,2.78E1,8.45E1,3E1,1.8E1,-3.0129633E0,2.54E1,1.67E1,2.2672405E0,1.46E1,1E1,2.07E1,2.64E1,1.99E1,1.95E1,3.31E1,3.08E1,3.04E1,3.3236349E0,-2.8729281E0,8.25E1,2.5E-1,2.93E1,8E0,8E0,1.4E1,2.5E-1,7.55E1,3.06E1,2.88E1,-3.0208306E0,-2.4660225E0,-1.0942373E0,-1.4768381E0,2.0226319E-1,1.5180671E0,4.788991E0,5.5476418E0,8.221103E0,2.5382888E0,5.866194E0,1.6984402E0,3.7222595E0,-1.0515608E0,-4.5512352E-2,-1.8289095E0,-1.0943909E0,1.6709995E0,2.9510708E0,-2.0271908E-2,1.0830619E0,-2.4242246E0,-1.2631274E0,-1.6575701E0,-2.4000034E0,-1.7572712E0,-1.2724738E-1,-1.1856899E0,-8.111563E-1,-1.2429289E0,5.503243E-1,1.3785957E0,3.6898801E0,5.7242656E0,2.5941834E0,2.2540684E0,-3.0612123E-1,5.198962E-1,-1.1622108E0,1.8463135E-1,1.8546101E0,-2.547233E0,-1.2278734E0],"split_indices":[1,3,3,3,3,3,3,3,3,0,3,0,0,3,3,3,0,0,3,1,1,0,0,0,0,0,1,0,3,0,0,0,0,0,3,0,0,0,0,0,0,0,0,0,1,2,0,3,3,3,2,1,0,0,0,0,0,0,0,0,0,0,0,0,0,0,0,0,0,0,0,0,0,0,0,0,0,0,0,0,0,0,0,0,0,0,0,0,0,0,0,0,0,0,0,0,0],"split_type":[0,0,0,0,0,0,0,0,0,0,0,0,0,0,0,0,0,0,0,0,0,0,0,0,0,0,0,0,0,0,0,0,0,0,0,0,0,0,0,0,0,0,0,0,0,0,0,0,0,0,0,0,0,0,0,0,0,0,0,0,0,0,0,0,0,0,0,0,0,0,0,0,0,0,0,0,0,0,0,0,0,0,0,0,0,0,0,0,0,0,0,0,0,0,0,0,0],"sum_hessian":[7.046E3,2.511E3,4.535E3,1.805E3,7.06E2,1.801E3,2.734E3,3.04E2,1.501E3,1.71E2,5.35E2,1.537E3,2.64E2,1.083E3,1.651E3,2.38E2,6.6E1,1.102E3,3.99E2,7.4E1,9.7E1,1.32E2,4.03E2,1.73E2,9.1E1,4.25E2,6.58E2,1.3E2,1.521E3,1.91E2,4.7E1,3.4E1,3.2E1,1.44E2,9.58E2,2.12E2,1.87E2,3.2E1,4.2E1,3.1E1,6.6E1,1.31E2,1E0,9.4E1,7.9E1,4.7E1,4.4E1,3.21E2,1.04E2,3.35E2,3.23E2,1.08E2,2.2E1,1.48E2,1.373E3,2.8E1,1.9E1,2E1,1.4E1,3.2E1,1.12E2,1.97E2,7.61E2,3.5E1,1.77E2,7.3E1,1.14E2,1.3E1,1.9E1,1.4E1,2.8E1,2.4E1,7E0,3.3E1,3.3E1,9.1E1,4E1,1.2E1,6.7E1,4.5E1,2E0,3E1,1.4E1,1.78E2,1.43E2,5.5E1,4.9E1,2.37E2,9.8E1,2.4E2,8.3E1,4E0,1.04E2,1E1,1.2E1,1.09E2,3.9E1],"tree_param":{"num_deleted":"0","num_feature":"4","num_nodes":"97","size_leaf_vector":"1"}},{"base_weights":[1.8430201E-2,6.551454E1,-2.7609648E1,1.0218216E2,-3.7153908E1,-5.5114872E1,-1.0901418E1,-3.8030605E1,1.25191376E2,3.2071445E0,-5.1984287E1,-2.8703094E0,-4.1762157E1,4.737691E1,-5.2089916E1,-5.3591183E1,1.397346E1,1.4096606E2,8.106108E1,-1.803845E1,1.986193E1,-3.616303E1,-2.8647857E0,-4.9971836E1,-2.664921E1,7.500392E1,1.357627E1,-1.1297115E1,-5.5854267E1,-2.8566117E0,-3.850284E1,-3.1026731E1,3.3585396E1,6.15928E1,1.4809668E2,4.4185574E1,9.884286E1,-2.792807E0,-2.2861198E1,3.8965927E1,7.952689E0,-3.777259E1,3.240544E0,-2.7221143E0,-4.3196854E1,-3.4121056E1,-2.2459778E1,2.649025E1,9.646689E1,-7.963737E0,3.0354189E1,-2.036175E1,2.2556902E1,-4.2670265E1,-2.8702133E0,-2.331408E0,-9.5218164E-1,-1.7898787E0,-3.8824072E-1,5.572381E-1,2.150674E0,5.3688326E0,2.3519168E0,8.324672E0,6.451669E0,3.7132874E0,5.873525E-1,5.9701896E0,3.6250083E0,-8.7862843E-1,1.3616092E0,-8.8956845E-1,-1.5828042E0,1.2740297E0,2.3425825E0,-7.29599E-3,7.8783774E-1,-2.499397E0,-1.3716649E0,-1.5791495E0,-2.265497E0,-1.8011494E0,-1.2300568E-1,3.7618828E0,-1.2540004E0,-8.350361E-1,2.542353E0,5.366989E0,1.8589119E0,3.5097095E-1,-1.2183505E0,1.8585703E0,-1.8846797E0,-1.2731678E0,-4.4257888E-1,4.5699367E-1,2.2637522E0,-2.6964672E0,-1.6356194E0],"categories":[],"categories_nodes":[],"categories_segments":[],"categories_sizes":[],"default_left":[0,0,0,0,0,0,0,0,0,0,0,0,0,0,0,0,0,0,0,0,0,0,0,0,0,0,0,0,0,0,0,0,0,0,0,0,0,0,0,0,0,0,0,0,0,0,0,0,0,0,0,0,0,0,0,0,0,0,0,0,0,0,0,0,0,0,0,0,0,0,0,0,0,0,0,0,0,0,0,0,0,0,0,0,0,0,0,0,0,0,0,0,0,0,0,0,0,0,0],"id":9,"left_children":[1,3,5,7,9,11,13,15,17,19,21,-1,23,25,27,29,31,33,35,37,39,41,-1,43,45,47,49,51,53,-1,55,57,59,61,63,65,67,69,71,73,75,77,-1,-1,79,81,83,85,87,89,91,93,95,97,-1,-1,-1,-1,-1,-1,-1,-1,-1,-1,-1,-1,-1,-1,-1,-1,-1,-1,-1,-1,-1,-1,-1,-1,-1,-1,-1,-1,-1,-1,-1,-1,-1,-1,-1,-1,-1,-1,-1,-1,-1,-1,-1,-1,-1],"loss_changes":[1.2753579E7,7.875592E6,2.2774562E6,4.976314E6,3.299787E5,5.4907E4,7.407692E6,1.7715731E5,9.10266E5,5.308056E4,3.17935E4,0E0,3.3160375E4,1.1923918E6,2.77002E5,6.7762812E3,4.605163E4,5.42142E5,2.2578725E5,4.7888633E3,1.88013E4,1.9350547E4,0E0,3.0696875E3,2.3639219E3,7.2944175E5,2.084061E5,4.771794E4,3.13715E4,0E0,4.645961E3,1.4977012E3,7.1372227E3,4.9590688E4,2.91694E5,1.1231533E5,1.19168E5,8.0224966E3,1.6662246E3,2.209125E3,3.3520093E3,1.1637375E4,0E0,0E0,4.3409375E2,1.9587539E3,1.9038266E4,2.2913194E5,3.099485E5,6.2351562E4,1.5170362E5,6.938492E3,9.64492E3,1.8192562E4,0E0,0E0,0E0,0E0,0E0,0E0,0E0,0E0,0E0,0E0,0E0,0E0,0E0,0E0,0E0,0E0,0E0,0E0,0E0,0E0,0E0,0E0,0E0,0E0,0E0,0E0,0E0,0E0,0E0,0E0,0E0,0E0,0E0,0E0,0E0,0E0,0E0,0E0,0E0,0E0,0E0,0E0,0E0,0E0,0E0],"parents":[2147483647,0,0,1,1,2,2,3,3,4,4,5,5,6,6,7,7,8,8,9,9,10,10,12,12,13,13,14,14,15,15,16,16,17,17,18,18,19,19,20,20,21,21,23,23,24,24,25,25,26,26,27,27,28,28,30,30,31,31,32,32,33,33,34,34,35,35,36,36,37,37,38,38,39,39,40,40,41,41,44,44,45,45,46,46,47,47,48,48,49,49,50,50,51,51,52,52,53,53],"right_children":[2,4,6,8,10,12,14,16,18,20,22,-1,24,26,28,30,32,34,36,38,40,42,-1,44,46,48,50,52,54,-1,56,58,60,62,64,66,68,70,72,74,76,78,-1,-1,80,82,84,86,88,90,92,94,96,98,-1,-1,-1,-1,-1,-1,-1,-1,-1,-1,-1,-1,-1,-1,-1,-1,-1,-1,-1,-1,-1,-1,-1,-1,-1,-1,-1,-1,-1,-1,-1,-1,-1,-1,-1,-1,-1,-1,-1,-1,-1,-1,-1,-1,-1],"split_conditions":[7.3E1,1.6E1,7E0,8E0,1.7E1,6E0,1.6E1,7E0,1.4E1,2.61E1,1.8E1,-2.8703094E0,2.66E1,8.45E1,1.7E1,6E0,1.66E1,1.7E1,2.4E1,5.85E1,6.65E1,3.38E1,-2.8647857E0,2.23E1,2.78E1,9E0,9E0,3E1,1.8E1,-2.8566117E0,2.52E1,1.56E1,2.55E1,6.25E1,6.7E1,6.25E1,1.5E1,2.16E1,7E1,6.25E1,3.08E1,2.51E1,3.240544E0,-2.7221143E0,8.25E1,2.5E-1,2.79E1,2.35E1,1.5E1,9.2E1,1.5E0,2.65E1,3.11E1,2.56E1,-2.8702133E0,-2.331408E0,-9.5218164E-1,-1.7898787E0,-3.8824072E-1,5.572381E-1,2.150674E0,5.3688326E0,2.3519168E0,8.324672E0,6.451669E0,3.7132874E0,5.873525E-1,5.9701896E0,3.6250083E0,-8.7862843E-1,1.3616092E0,-8.8956845E-1,-1.5828042E0,1.2740297E0,2.3425825E0,-7.29599E-3,7.8783774E-1,-2.499397E0,-1.3716649E0,-1.5791495E0,-2.265497E0,-1.8011494E0,-1.2300568E-1,3.7618828E0,-1.2540004E0,-8.350361E-1,2.542353E0,5.366989E0,1.8589119E0,3.5097095E-1,-1.2183505E0,1.8585703E0,-1.8846797E0,-1.2731678E0,-4.4257888E-1,4.5699367E-1,2.2637522E0,-2.6964672E0,-1.6356194E0],"split_indices":[1,3,3,3,3,3,3,3,3,0,3,0,0,1,3,3,0,0,0,1,1,0,0,0,0,3,3,0,3,0,0,0,0,1,1,1,3,0,1,1,0,0,0,0,1,2,0,0,3,1,2,0,0,0,0,0,0,0,0,0,0,0,0,0,0,0,0,0,0,0,0,0,0,0,0,0,0,0,0,0,0,0,0,0,0,0,0,0,0,0,0,0,0,0,0,0,0,0,0],"split_type":[0,0,0,0,0,0,0,0,0,0,0,0,0,0,0,0,0,0,0,0,0,0,0,0,0,0,0,0,0,0,0,0,0,0,0,0,0,0,0,0,0,0,0,0,0,0,0,0,0,0,0,0,0,0,0,0,0,0,0,0,0,0,0,0,0,0,0,0,0,0,0,0,0,0,0,0,0,0,0,0,0,0,0,0,0,0,0,0,0,0,0,0,0,0,0,0,0,0,0],"sum_hessian":[7.046E3,2.09E3,4.956E3,1.54E3,5.5E2,1.872E3,3.084E3,2.17E2,1.323E3,1.48E2,4.02E2,1.595E3,2.77E2,1.277E3,1.807E3,1.67E2,5E1,9.73E2,3.5E2,6.5E1,8.3E1,1.03E2,2.99E2,1.78E2,9.9E1,7.02E2,5.75E2,1.53E2,1.654E3,1.33E2,3.4E1,1.5E1,3.5E1,8.1E1,8.92E2,1.15E2,2.35E2,1.6E1,4.9E1,3.1E1,5.2E1,1.02E2,1E0,1.03E2,7.5E1,3.3E1,6.6E1,2.16E2,4.86E2,2.52E2,3.23E2,1.21E2,3.2E1,1.77E2,1.477E3,2.3E1,1.1E1,1.2E1,3E0,1.1E1,2.4E1,1.8E1,6.3E1,4.5E2,4.42E2,5.9E1,5.6E1,1.3E2,1.05E2,1.1E1,5E0,3.3E1,1.6E1,1.3E1,1.8E1,2.6E1,2.6E1,4.5E1,5.7E1,1.4E1,6.1E1,3.1E1,2E0,1E0,6.5E1,7.8E1,1.38E2,4.1E2,7.6E1,1.32E2,1.2E2,2.94E2,2.9E1,8.3E1,3.8E1,2.1E1,1.1E1,8.1E1,9.6E1],"tree_param":{"num_deleted":"0","num_feature":"4","num_nodes":"99","size_leaf_vector":"1"}},{"base_weights":[2.0726832E-2,5.4357822E1,-3.007072E1,9.021364E1,-3.7311153E1,-5.2439926E1,-1.5321403E1,-3.705326E1,1.1599672E2,2.8231914E0,-5.0120472E1,-2.7265937E0,-4.010084E1,3.749273E1,-4.9967403E1,-5.0795166E1,1.2519412E1,1.3028783E2,7.629901E1,-1.8083769E1,1.879461E1,-3.6483078E1,-2.7242975E0,-4.754847E1,-2.5579237E1,6.5253586E1,1.2895906E1,-1.2831851E1,-5.3130867E1,-2.7208064E0,-3.5253098E1,-1.46591835E1,4.0965816E1,5.7512486E1,1.373271E2,9.6454704E1,5.305719E1,-8.515665E0,-2.5006182E1,3.713065E1,9.75658E0,-3.77169E1,3.1595304E0,-2.610495E0,-4.205344E1,-3.0317013E1,-1.8946468E1,2.3292988E1,8.678897E1,-7.5689754E0,2.8836397E1,-1.786889E1,1.7131757E0,-3.987357E1,-2.7264926E0,-2.2349956E0,-9.8962826E-1,-1.7895504E0,-1.7412357E-1,1.3121253E0,2.196023E0,8.831421E-1,3.8140762E0,4.1870685E0,7.2317977E0,3.5863762E0,5.8649554E0,2.1087651E0,4.33501E0,-9.616712E-1,-2.9372519E-2,-1.6866572E0,-9.814977E-1,1.4954447E0,2.7528656E0,-1.8422004E-2,9.7973216E-1,-2.201288E0,-1.1320256E0,-4.4272804E-1,-2.1171627E0,-1.5693504E0,-1.1890539E-1,-4.1741425E-1,-9.9332947E-1,-1.5695933E0,2.1595304E0,5.1720333E0,2.2940488E0,3.3355454E-1,-1.1579363E0,2.0492895E0,-3.1820402E-1,-1.2066442E0,-3.5159102E-1,-2.3047907E0,-1.0882782E0],"categories":[],"categories_nodes":[],"categories_segments":[],"categories_sizes":[],"default_left":[0,0,0,0,0,0,0,0,0,0,0,0,0,0,0,0,0,0,0,0,0,0,0,0,0,0,0,0,0,0,0,0,0,0,0,0,0,0,0,0,0,0,0,0,0,0,0,0,0,0,0,0,0,0,0,0,0,0,0,0,0,0,0,0,0,0,0,0,0,0,0,0,0,0,0,0,0,0,0,0,0,0,0,0,0,0,0,0,0,0,0,0,0,0,0,0,0],"id":10,"left_children":[1,3,5,7,9,11,13,15,17,19,21,-1,23,25,27,29,31,33,35,37,39,41,-1,43,45,47,49,51,53,-1,55,57,59,61,63,65,67,69,71,73,75,77,-1,-1,79,81,83,85,87,89,91,93,-1,95,-1,-1,-1,-1,-1,-1,-1,-1,-1,-1,-1,-1,-1,-1,-1,-1,-1,-1,-1,-1,-1,-1,-1,-1,-1,-1,-1,-1,-1,-1,-1,-1,-1,-1,-1,-1,-1,-1,-1,-1,-1,-1,-1],"loss_changes":[1.1524056E7,8.259973E6,1.495761E6,5.930384E6,3.636057E5,4.4328E4,5.006372E6,2.08409E5,8.42182E5,5.777305E4,2.992225E4,0E0,2.7443875E4,7.39345E5,1.9339025E5,1.1531875E4,5.240046E4,5.57152E5,1.8226425E5,4.754631E3,1.5878453E4,1.8739625E4,0E0,2.2613438E3,2.3166602E3,4.5792975E5,1.8812112E5,3.1688234E4,2.6054E4,0E0,6.125801E3,8.1418086E3,2.8298828E2,7.269869E4,3.81496E5,1.013715E5,6.5170125E4,2.7928003E3,1.3552988E3,2.4960781E3,6.681129E3,1.1558391E4,0E0,0E0,4.4290625E2,1.4798711E3,2.3396387E2,1.9068495E5,2.24133E5,5.632026E4,1.388241E5,7.908414E3,0E0,1.5784891E4,0E0,0E0,0E0,0E0,0E0,0E0,0E0,0E0,0E0,0E0,0E0,0E0,0E0,0E0,0E0,0E0,0E0,0E0,0E0,0E0,0E0,0E0,0E0,0E0,0E0,0E0,0E0,0E0,0E0,0E0,0E0,0E0,0E0,0E0,0E0,0E0,0E0,0E0,0E0,0E0,0E0,0E0,0E0],"parents":[2147483647,0,0,1,1,2,2,3,3,4,4,5,5,6,6,7,7,8,8,9,9,10,10,12,12,13,13,14,14,15,15,16,16,17,17,18,18,19,19,20,20,21,21,23,23,24,24,25,25,26,26,27,27,28,28,30,30,31,31,32,32,33,33,34,34,35,35,36,36,37,37,38,38,39,39,40,40,41,41,44,44,45,45,46,46,47,47,48,48,49,49,50,50,51,51,53,53],"right_children":[2,4,6,8,10,12,14,16,18,20,22,-1,24,26,28,30,32,34,36,38,40,42,-1,44,46,48,50,52,54,-1,56,58,60,62,64,66,68,70,72,74,76,78,-1,-1,80,82,84,86,88,90,92,94,-1,96,-1,-1,-1,-1,-1,-1,-1,-1,-1,-1,-1,-1,-1,-1,-1,-1,-1,-1,-1,-1,-1,-1,-1,-1,-1,-1,-1,-1,-1,-1,-1,-1,-1,-1,-1,-1,-1,-1,-1,-1,-1,-1,-1],"split_conditions":[7.5E1,1.6E1,7E0,8E0,1.7E1,6E0,1.6E1,7E0,1.4E1,2.61E1,1.8E1,-2.7265937E0,2.66E1,8.45E1,1.7E1,6E0,2.55E1,9E0,1.5E1,6.4E1,6.65E1,3.38E1,-2.7242975E0,2.01E1,2.85E1,9E0,9E0,3.06E1,1.8E1,-2.7208064E0,2.54E1,1.4E1,2.88E1,2.53E1,1.88E1,2.85E1,3.17E1,1.99E1,1.95E1,3.31E1,3.08E1,3.04E1,3.1595304E0,-2.610495E0,2.02E1,2.5E-1,2.86E1,1.78E1,1.4E1,9.2E1,2.5E-1,2.65E1,1.7131757E0,2.88E1,-2.7264926E0,-2.2349956E0,-9.8962826E-1,-1.7895504E0,-1.7412357E-1,1.3121253E0,2.196023E0,8.831421E-1,3.8140762E0,4.1870685E0,7.2317977E0,3.5863762E0,5.8649554E0,2.1087651E0,4.33501E0,-9.616712E-1,-2.9372519E-2,-1.6866572E0,-9.814977E-1,1.4954447E0,2.7528656E0,-1.8422004E-2,9.7973216E-1,-2.201288E0,-1.1320256E0,-4.4272804E-1,-2.1171627E0,-1.5693504E0,-1.1890539E-1,-4.1741425E-1,-9.9332947E-1,-1.5695933E0,2.1595304E0,5.1720333E0,2.2940488E0,3.3355454E-1,-1.1579363E0,2.0492895E0,-3.1820402E-1,-1.2066442E0,-3.5159102E-1,-2.3047907E0,-1.0882782E0],"split_indices":[1,3,3,3,3,3,3,3,3,0,3,0,0,1,3,3,0,3,3,1,1,0,0,0,0,3,3,0,3,0,0,0,0,0,0,0,0,0,0,0,0,0,0,0,0,2,0,0,3,1,2,0,0,0,0,0,0,0,0,0,0,0,0,0,0,0,0,0,0,0,0,0,0,0,0,0,0,0,0,0,0,0,0,0,0,0,0,0,0,0,0,0,0,0,0,0,0],"split_type":[0,0,0,0,0,0,0,0,0,0,0,0,0,0,0,0,0,0,0,0,0,0,0,0,0,0,0,0,0,0,0,0,0,0,0,0,0,0,0,0,0,0,0,0,0,0,0,0,0,0,0,0,0,0,0,0,0,0,0,0,0,0,0,0,0,0,0,0,0,0,0,0,0,0,0,0,0,0,0,0,0,0,0,0,0,0,0,0,0,0,0,0,0,0,0,0,0],"sum_hessian":[7.046E3,2.511E3,4.535E3,1.805E3,7.06E2,1.801E3,2.734E3,3.04E2,1.501E3,1.71E2,5.35E2,1.537E3,2.64E2,1.083E3,1.651E3,2.38E2,6.6E1,1.102E3,3.99E2,7.4E1,9.7E1,1.32E2,4.03E2,1.73E2,9.1E1,5.08E2,5.75E2,1.3E2,1.521E3,1.91E2,4.7E1,3.4E1,3.2E1,9.8E1,1.004E3,2.12E2,1.87E2,3.2E1,4.2E1,3.1E1,6.6E1,1.31E2,1E0,8.9E1,8.4E1,5.1E1,4E1,1.73E2,3.35E2,2.52E2,3.23E2,1.18E2,1.2E1,1.48E2,1.373E3,2.8E1,1.9E1,1.1E1,2.3E1,7E0,2.5E1,3.2E1,6.6E1,1.22E2,8.82E2,9.9E1,1.13E2,1.43E2,4.4E1,1.3E1,1.9E1,1.4E1,2.8E1,2.4E1,7E0,3.3E1,3.3E1,9.1E1,4E1,1E0,8.3E1,4.9E1,2E0,4E0,3.6E1,4.6E1,1.27E2,2.37E2,9.8E1,1.32E2,1.2E2,2.4E2,8.3E1,7.4E1,4.4E1,1.09E2,3.9E1],"tree_param":{"num_deleted":"0","num_feature":"4","num_nodes":"97","size_leaf_vector":"1"}},{"base_weights":[2.2282692E-2,5.921321E1,-2.4946096E1,9.2335724E1,-3.352909E1,-4.9752678E1,-9.877159E0,-3.4347218E1,1.1312466E2,2.8820841E0,-4.690809E1,-2.5906503E0,-3.7745358E1,4.2676548E1,-4.7019722E1,-4.842342E1,1.2694924E1,1.2738169E2,7.3240105E1,-1.6360516E1,1.7966959E1,-3.2561367E1,-2.5862632E0,-4.5165367E1,-2.4086088E1,6.7543495E1,1.22526865E1,-1.0151554E1,-5.0421947E1,-2.5798218E0,-3.4891773E1,-2.8539608E1,3.0668747E1,5.4995102E1,1.3388597E2,3.9209454E1,8.965669E1,-2.2680633E0,-2.082474E1,3.5406876E1,7.0982E0,-3.4073826E1,3.080542E0,-2.462003E0,-3.8995193E1,-3.1050776E1,-2.0192276E1,2.3828516E1,8.688355E1,-1.7040068E1,2.2607037E1,-1.843749E1,2.0788927E1,-3.8600708E1,-2.590575E0,-2.3211095E0,-1.1369342E0,-1.6433138E0,-3.6715212E-1,5.3967893E-1,1.949104E0,4.201517E0,1.736597E0,7.6686034E0,5.8809805E0,3.3913274E0,4.199155E-1,5.4099097E0,3.2948194E0,-8.1370413E-1,1.3060993E0,-8.0535024E-1,-1.4517612E0,1.4236631E0,2.6324275E0,-6.057683E-3,7.0273286E-1,-2.2694724E0,-1.2255944E0,-1.4058694E0,-2.0498984E0,-1.6387967E0,-1.1494192E-1,3.7070699E0,-1.1372465E0,-7.754299E-1,2.3007076E0,5.1018605E0,2.574203E0,-1.3109572E0,4.6984546E-2,1.7592242E0,-1.5324998E-1,-1.1506003E0,-4.0559694E-1,4.1381738E-1,2.0998125E0,-2.4499586E0,-1.4706153E0],"categories":[],"categories_nodes":[],"categories_segments":[],"categories_sizes":[],"default_left":[0,0,0,0,0,0,0,0,0,0,0,0,0,0,0,0,0,0,0,0,0,0,0,0,0,0,0,0,0,0,0,0,0,0,0,0,0,0,0,0,0,0,0,0,0,0,0,0,0,0,0,0,0,0,0,0,0,0,0,0,0,0,0,0,0,0,0,0,0,0,0,0,0,0,0,0,0,0,0,0,0,0,0,0,0,0,0,0,0,0,0,0,0,0,0,0,0,0,0],"id":11,"left_children":[1,3,5,7,9,11,13,15,17,19,21,-1,23,25,27,29,31,33,35,37,39,41,-1,43,45,47,49,51,53,-1,55,57,59,61,63,65,67,69,71,73,75,77,-1,-1,79,81,83,85,87,89,91,93,95,97,-1,-1,-1,-1,-1,-1,-1,-1,-1,-1,-1,-1,-1,-1,-1,-1,-1,-1,-1,-1,-1,-1,-1,-1,-1,-1,-1,-1,-1,-1,-1,-1,-1,-1,-1,-1,-1,-1,-1,-1,-1,-1,-1,-1,-1],"loss_changes":[1.0416249E7,6.426351E6,1.8524788E6,4.062268E6,2.6855206E5,4.43805E4,6.023863E6,1.4496881E5,7.43544E5,4.3544508E4,2.6167312E4,0E0,2.7087969E4,9.660415E5,2.2627275E5,5.4129688E3,3.8673527E4,4.51218E5,1.9257688E5,4.104951E3,1.5670895E4,1.691218E4,0E0,2.5802188E3,2.0849336E3,5.922815E5,1.7509031E5,3.986441E4,2.5185E4,0E0,3.8489766E3,1.2260283E3,5.5274805E3,4.5325797E4,2.65013E5,1.01710516E5,9.6840375E4,7.184848E3,1.4690742E3,2.3264297E3,2.663423E3,1.0031945E4,0E0,0E0,5.0296094E2,1.6111094E3,1.7820018E4,1.9009362E5,2.55989E5,2.4945305E4,1.3765845E5,5.575922E3,8.40925E3,1.5565875E4,0E0,0E0,0E0,0E0,0E0,0E0,0E0,0E0,0E0,0E0,0E0,0E0,0E0,0E0,0E0,0E0,0E0,0E0,0E0,0E0,0E0,0E0,0E0,0E0,0E0,0E0,0E0,0E0,0E0,0E0,0E0,0E0,0E0,0E0,0E0,0E0,0E0,0E0,0E0,0E0,0E0,0E0,0E0,0E0,0E0],"parents":[2147483647,0,0,1,1,2,2,3,3,4,4,5,5,6,6,7,7,8,8,9,9,10,10,12,12,13,13,14,14,15,15,16,16,17,17,18,18,19,19,20,20,21,21,23,23,24,24,25,25,26,26,27,27,28,28,30,30,31,31,32,32,33,33,34,34,35,35,36,36,37,37,38,38,39,39,40,40,41,41,44,44,45,45,46,46,47,47,48,48,49,49,50,50,51,51,52,52,53,53],"right_children":[2,4,6,8,10,12,14,16,18,20,22,-1,24,26,28,30,32,34,36,38,40,42,-1,44,46,48,50,52,54,-1,56,58,60,62,64,66,68,70,72,74,76,78,-1,-1,80,82,84,86,88,90,92,94,96,98,-1,-1,-1,-1,-1,-1,-1,-1,-1,-1,-1,-1,-1,-1,-1,-1,-1,-1,-1,-1,-1,-1,-1,-1,-1,-1,-1,-1,-1,-1,-1,-1,-1,-1,-1,-1,-1,-1,-1,-1,-1,-1,-1,-1,-1],"split_conditions":[7.3E1,1.6E1,7E0,8E0,1.7E1,6E0,1.6E1,7E0,1.4E1,2.61E1,1.8E1,-2.5906503E0,2.66E1,8.45E1,1.7E1,6E0,1.66E1,1.7E1,2.4E1,5.85E1,6.65E1,3.38E1,-2.5862632E0,2.23E1,2.78E1,9E0,8E0,3E1,1.8E1,-2.5798218E0,1.64E1,1.56E1,2.55E1,6.6E1,6.6E1,6.25E1,1.5E1,2.16E1,7E1,3.31E1,3.08E1,2.51E1,3.080542E0,-2.462003E0,8.25E1,2.5E-1,2.79E1,2.35E1,1.4E1,2.64E1,9.3E1,2.65E1,3.11E1,2.56E1,-2.590575E0,-2.3211095E0,-1.1369342E0,-1.6433138E0,-3.6715212E-1,5.3967893E-1,1.949104E0,4.201517E0,1.736597E0,7.6686034E0,5.8809805E0,3.3913274E0,4.199155E-1,5.4099097E0,3.2948194E0,-8.1370413E-1,1.3060993E0,-8.0535024E-1,-1.4517612E0,1.4236631E0,2.6324275E0,-6.057683E-3,7.0273286E-1,-2.2694724E0,-1.2255944E0,-1.4058694E0,-2.0498984E0,-1.6387967E0,-1.1494192E-1,3.7070699E0,-1.1372465E0,-7.754299E-1,2.3007076E0,5.1018605E0,2.574203E0,-1.3109572E0,4.6984546E-2,1.7592242E0,-1.5324998E-1,-1.1506003E0,-4.0559694E-1,4.1381738E-1,2.0998125E0,-2.4499586E0,-1.4706153E0],"split_indices":[1,3,3,3,3,3,3,3,3,0,3,0,0,1,3,3,0,0,0,1,1,0,0,0,0,3,3,0,3,0,0,0,0,1,1,1,3,0,1,0,0,0,0,0,1,2,0,0,3,0,1,0,0,0,0,0,0,0,0,0,0,0,0,0,0,0,0,0,0,0,0,0,0,0,0,0,0,0,0,0,0,0,0,0,0,0,0,0,0,0,0,0,0,0,0,0,0,0,0],"split_type":[0,0,0,0,0,0,0,0,0,0,0,0,0,0,0,0,0,0,0,0,0,0,0,0,0,0,0,0,0,0,0,0,0,0,0,0,0,0,0,0,0,0,0,0,0,0,0,0,0,0,0,0,0,0,0,0,0,0,0,0,0,0,0,0,0,0,0,0,0,0,0,0,0,0,0,0,0,0,0,0,0,0,0,0,0,0,0,0,0,0,0,0,0,0,0,0,0,0,0],"sum_hessian":[7.046E3,2.09E3,4.956E3,1.54E3,5.5E2,1.872E3,3.084E3,2.17E2,1.323E3,1.48E2,4.02E2,1.595E3,2.77E2,1.277E3,1.807E3,1.67E2,5E1,9.73E2,3.5E2,6.5E1,8.3E1,1.03E2,2.99E2,1.78E2,9.9E1,7.02E2,5.75E2,1.53E2,1.654E3,1.33E2,3.4E1,1.5E1,3.5E1,8.1E1,8.92E2,1.15E2,2.35E2,1.6E1,4.9E1,3.1E1,5.2E1,1.02E2,1E0,1.03E2,7.5E1,3.3E1,6.6E1,2.16E2,4.86E2,1.5E2,4.25E2,1.21E2,3.2E1,1.77E2,1.477E3,1.6E1,1.8E1,1.2E1,3E0,1.1E1,2.4E1,3.2E1,4.9E1,4.02E2,4.9E2,5.9E1,5.6E1,1.3E2,1.05E2,1.1E1,5E0,3.3E1,1.6E1,2.4E1,7E0,2.6E1,2.6E1,4.5E1,5.7E1,1.4E1,6.1E1,3.1E1,2E0,1E0,6.5E1,7.8E1,1.38E2,3.39E2,1.47E2,9.9E1,5.1E1,2.85E2,1.4E2,8.3E1,3.8E1,2.1E1,1.1E1,8.1E1,9.6E1],"tree_param":{"num_deleted":"0","num_feature":"4","num_nodes":"99","size_leaf_vector":"1"}},{"base_weights":[2.4392791E-2,5.626519E1,-2.369954E1,8.77361E1,-3.1852661E1,-4.726915E1,-9.382008E0,-3.2655357E1,1.0749259E2,2.758034E0,-4.4570133E1,-2.4611988E0,-3.5876442E1,4.0550186E1,-4.467181E1,-4.603819E1,1.2069555E1,1.21032616E2,6.9613754E1,-1.5569227E1,1.712519E1,-3.0937284E1,-2.457381E0,-4.294016E1,-2.2873625E1,6.4179405E1,1.1640646E1,-9.637762E0,-4.790478E1,-4.7102486E1,-7.415225E-1,-2.7238285E1,2.9204441E1,6.915182E1,1.2929811E2,3.7281834E1,8.521075E1,-2.1256948E0,-1.9828644E1,3.3763283E1,6.756433E0,-3.2404064E1,3.0035286E0,-2.3400867E0,-3.7090904E1,-2.7614723E1,-8.888494E-1,2.2644121E1,8.255513E1,-1.6196434E1,2.1480453E1,-1.7528376E1,1.9825651E1,-3.6692696E1,-2.4611337E0,-2.4517934E0,-1.8272352E0,-1.5674686E0,-3.5338402E-1,5.1494354E-1,1.855547E0,4.6635E-1,3.9099298E0,7.4757805E0,5.631816E0,3.2245872E0,3.9928794E-1,7.323733E0,3.8953862E0,-7.764093E-1,1.2516785E0,-7.66267E-1,-1.3834431E0,1.0353092E0,2.0803647E0,-5.7660136E-3,6.6889745E-1,-2.1584656E0,-1.1653712E0,-1.4604931E0,-1.9880387E0,-1.4313225E0,-1.1111044E-1,-1.2724917E0,1.9564707E0,4.604456E0,1.5296892E0,-1.170504E0,2.2033434E-1,1.843145E0,1.1807032E-1,-1.0937552E0,-3.8583723E-1,3.940669E-1,2.003571E0,-2.1364346E0,-1.1208569E0],"categories":[],"categories_nodes":[],"categories_segments":[],"categories_sizes":[],"default_left":[0,0,0,0,0,0,0,0,0,0,0,0,0,0,0,0,0,0,0,0,0,0,0,0,0,0,0,0,0,0,0,0,0,0,0,0,0,0,0,0,0,0,0,0,0,0,0,0,0,0,0,0,0,0,0,0,0,0,0,0,0,0,0,0,0,0,0,0,0,0,0,0,0,0,0,0,0,0,0,0,0,0,0,0,0,0,0,0,0,0,0,0,0,0,0,0,0],"id":12,"left_children":[1,3,5,7,9,11,13,15,17,19,21,-1,23,25,27,29,31,33,35,37,39,41,-1,43,45,47,49,51,53,55,-1,57,59,61,63,65,67,69,71,73,75,77,-1,-1,79,81,-1,83,85,87,89,91,93,95,-1,-1,-1,-1,-1,-1,-1,-1,-1,-1,-1,-1,-1,-1,-1,-1,-1,-1,-1,-1,-1,-1,-1,-1,-1,-1,-1,-1,-1,-1,-1,-1,-1,-1,-1,-1,-1,-1,-1,-1,-1,-1,-1],"loss_changes":[9.403813E6,5.801449E6,1.6723392E6,3.668799E6,2.4265131E5,3.994725E4,5.437881E6,1.3103866E5,6.70628E5,3.9499914E4,2.3628375E4,0E0,2.4551625E4,8.722675E5,2.0431975E5,4.8814375E3,3.514578E4,4.08729E5,1.7382575E5,3.7371162E3,1.4263254E4,1.5829344E4,0E0,2.3072188E3,1.9254609E3,5.34689E5,1.5812097E5,3.615011E4,2.264875E4,1.5147812E3,0E0,1.1052031E3,4.998965E3,7.287681E4,2.65785E5,9.1953625E4,9.417775E4,6.576756E3,1.3413105E3,2.415914E3,2.4131177E3,9.080383E3,0E0,0E0,4.377422E2,1.2209023E3,0E0,1.7304275E5,2.3844175E5,2.2545328E4,1.2519856E5,5.0343164E3,7.6643027E3,1.4379922E4,0E0,0E0,0E0,0E0,0E0,0E0,0E0,0E0,0E0,0E0,0E0,0E0,0E0,0E0,0E0,0E0,0E0,0E0,0E0,0E0,0E0,0E0,0E0,0E0,0E0,0E0,0E0,0E0,0E0,0E0,0E0,0E0,0E0,0E0,0E0,0E0,0E0,0E0,0E0,0E0,0E0,0E0,0E0],"parents":[2147483647,0,0,1,1,2,2,3,3,4,4,5,5,6,6,7,7,8,8,9,9,10,10,12,12,13,13,14,14,15,15,16,16,17,17,18,18,19,19,20,20,21,21,23,23,24,24,25,25,26,26,27,27,28,28,29,29,31,31,32,32,33,33,34,34,35,35,36,36,37,37,38,38,39,39,40,40,41,41,44,44,45,45,47,47,48,48,49,49,50,50,51,51,52,52,53,53],"right_children":[2,4,6,8,10,12,14,16,18,20,22,-1,24,26,28,30,32,34,36,38,40,42,-1,44,46,48,50,52,54,56,-1,58,60,62,64,66,68,70,72,74,76,78,-1,-1,80,82,-1,84,86,88,90,92,94,96,-1,-1,-1,-1,-1,-1,-1,-1,-1,-1,-1,-1,-1,-1,-1,-1,-1,-1,-1,-1,-1,-1,-1,-1,-1,-1,-1,-1,-1,-1,-1,-1,-1,-1,-1,-1,-1,-1,-1,-1,-1,-1,-1],"split_conditions":[7.3E1,1.6E1,7E0,8E0,1.7E1,6E0,1.6E1,7E0,1.4E1,2.61E1,1.8E1,-2.4611988E0,2.66E1,8.45E1,1.7E1,3.06E1,1.66E1,1.91E1,2.4E1,5.85E1,6.65E1,3.38E1,-2.457381E0,2.23E1,2.84E1,9E0,8E0,3E1,1.8E1,6E0,-7.415225E-1,1.56E1,2.55E1,9E0,6.6E1,6.25E1,5.9E1,2.16E1,7E1,6.25E1,3.08E1,2.51E1,3.0035286E0,-2.3400867E0,8.8E1,2.5E-1,-8.888494E-1,1.78E1,1.5E1,2.68E1,9.2E1,2.65E1,3.11E1,2.88E1,-2.4611337E0,-2.4517934E0,-1.8272352E0,-1.5674686E0,-3.5338402E-1,5.1494354E-1,1.855547E0,4.6635E-1,3.9099298E0,7.4757805E0,5.631816E0,3.2245872E0,3.9928794E-1,7.323733E0,3.8953862E0,-7.764093E-1,1.2516785E0,-7.66267E-1,-1.3834431E0,1.0353092E0,2.0803647E0,-5.7660136E-3,6.6889745E-1,-2.1584656E0,-1.1653712E0,-1.4604931E0,-1.9880387E0,-1.4313225E0,-1.1111044E-1,-1.2724917E0,1.9564707E0,4.604456E0,1.5296892E0,-1.170504E0,2.2033434E-1,1.843145E0,1.1807032E-1,-1.0937552E0,-3.8583723E-1,3.940669E-1,2.003571E0,-2.1364346E0,-1.1208569E0],"split_indices":[1,3,3,3,3,3,3,3,3,0,3,0,0,1,3,0,0,0,0,1,1,0,0,0,0,3,3,0,3,3,0,0,0,3,1,1,1,0,1,1,0,0,0,0,1,2,0,0,3,0,1,0,0,0,0,0,0,0,0,0,0,0,0,0,0,0,0,0,0,0,0,0,0,0,0,0,0,0,0,0,0,0,0,0,0,0,0,0,0,0,0,0,0,0,0,0,0],"split_type":[0,0,0,0,0,0,0,0,0,0,0,0,0,0,0,0,0,0,0,0,0,0,0,0,0,0,0,0,0,0,0,0,0,0,0,0,0,0,0,0,0,0,0,0,0,0,0,0,0,0,0,0,0,0,0,0,0,0,0,0,0,0,0,0,0,0,0,0,0,0,0,0,0,0,0,0,0,0,0,0,0,0,0,0,0,0,0,0,0,0,0,0,0,0,0,0,0],"sum_hessian":[7.046E3,2.09E3,4.956E3,1.54E3,5.5E2,1.872E3,3.084E3,2.17E2,1.323E3,1.48E2,4.02E2,1.595E3,2.77E2,1.277E3,1.807E3,1.67E2,5E1,9.73E2,3.5E2,6.5E1,8.3E1,1.03E2,2.99E2,1.78E2,9.9E1,7.02E2,5.75E2,1.53E2,1.654E3,1.61E2,6E0,1.5E1,3.5E1,1.35E2,8.38E2,1.15E2,2.35E2,1.6E1,4.9E1,3.1E1,5.2E1,1.02E2,1E0,1.03E2,7.5E1,4.9E1,5E1,2.16E2,4.86E2,1.5E2,4.25E2,1.21E2,3.2E1,1.77E2,1.477E3,1.33E2,2.8E1,1.2E1,3E0,1.1E1,2.4E1,1.8E1,1.17E2,3.75E2,4.63E2,5.9E1,5.6E1,2.3E1,2.12E2,1.1E1,5E0,3.3E1,1.6E1,1.3E1,1.8E1,2.6E1,2.6E1,4.5E1,5.7E1,2.2E1,5.3E1,4.7E1,2E0,5.5E1,1.61E2,4.1E2,7.6E1,1.11E2,3.9E1,2.35E2,1.9E2,8.3E1,3.8E1,2.1E1,1.1E1,1.23E2,5.4E1],"tree_param":{"num_deleted":"0","num_feature":"4","num_nodes":"97","size_leaf_vector":"1"}},{"base_weights":[2.592877E-2,4.6690636E1,-2.5816614E1,7.748039E1,-3.202646E1,-4.497566E1,-1.3183922E1,-3.1868462E1,9.963347E1,2.4502716E0,-4.3030132E1,-2.3379247E0,-3.445875E1,3.20169E1,-4.283556E1,-4.3621872E1,1.0533529E1,1.07429245E2,4.4574512E1,-1.5599993E1,1.6239246E1,-3.1452234E1,-2.3367581E0,-2.1370256E0,-2.4696905E1,-1.16672325E1,4.399113E1,-1.0977322E1,-4.5549484E1,-2.3348985E0,-3.0408691E1,-1.3762845E1,3.4520092E1,6.4001205E1,1.1516163E2,3.4669895E1,7.527873E1,-1.9914505E0,-1.9256691E1,3.2172485E1,8.386966E0,-3.2577915E1,2.9284406E0,-3.0430674E1,-1.8073708E1,-2.1523907E1,2.0047264E1,6.0521576E1,1.0244244E1,-1.543466E1,1.533444E0,-3.410583E1,-2.3378656E0,-2.1814544E0,-1.0511076E0,1.3087014E0,-9.236013E-1,1.0223926E0,1.9031779E0,1.5700196E0,3.9675796E0,6.9365144E0,5.163509E0,2.8170977E0,1.1449302E0,2.163671E0,4.1039014E0,-7.408237E-1,1.1995252E0,-1.574499E0,-8.21245E-1,1.2721908E0,2.4589007E0,-1.5984435E-2,8.4234726E-1,-1.9100802E0,-9.5821613E-1,-6.281435E-1,-1.6359017E0,3.6501763E0,-1.0427369E0,-1.8353258E0,-6.056858E-1,8.9229697E-1,3.528003E0,4.1115722E-1,3.349561E0,8.0171835E-1,-2.1323154E0,-1.036395E0,-3.1348014E-1,-2.1807218E0,-1.2199348E0],"categories":[],"categories_nodes":[],"categories_segments":[],"categories_sizes":[],"default_left":[0,0,0,0,0,0,0,0,0,0,0,0,0,0,0,0,0,0,0,0,0,0,0,0,0,0,0,0,0,0,0,0,0,0,0,0,0,0,0,0,0,0,0,0,0,0,0,0,0,0,0,0,0,0,0,0,0,0,0,0,0,0,0,0,0,0,0,0,0,0,0,0,0,0,0,0,0,0,0,0,0,0,0,0,0,0,0,0,0,0,0,0,0],"id":13,"left_children":[1,3,5,7,9,11,13,15,17,19,21,-1,23,25,27,29,31,33,35,37,39,41,-1,-1,43,45,47,49,51,-1,53,55,57,59,61,63,65,67,69,71,73,75,-1,77,79,81,83,85,87,89,-1,91,-1,-1,-1,-1,-1,-1,-1,-1,-1,-1,-1,-1,-1,-1,-1,-1,-1,-1,-1,-1,-1,-1,-1,-1,-1,-1,-1,-1,-1,-1,-1,-1,-1,-1,-1,-1,-1,-1,-1,-1,-1],"loss_changes":[8.499427E6,6.090766E6,1.0972565E6,4.378055E6,2.6832062E5,3.217625E4,3.6670328E6,1.5246175E5,6.3991E5,4.306321E4,2.1522562E4,0E0,2.0368438E4,5.675361E5,1.4233325E5,8.294156E3,3.9521797E4,4.34209E5,5.4563406E4,3.6938281E3,1.199117E4,1.5385578E4,0E0,0E0,4.1590156E3,7.3579766E4,4.7411125E5,2.4791055E4,1.94425E4,0E0,5.039324E3,6.877868E3,9.170703E2,9.809581E4,2.98171E5,3.544542E4,6.240828E3,6.0201807E3,1.5266641E3,2.4103086E3,4.9404795E3,9.225172E3,0E0,2.2455234E3,1.671978E4,2.5129312E4,4.967713E3,1.9264825E5,8.673803E4,5.6430723E3,0E0,1.2688766E4,0E0,0E0,0E0,0E0,0E0,0E0,0E0,0E0,0E0,0E0,0E0,0E0,0E0,0E0,0E0,0E0,0E0,0E0,0E0,0E0,0E0,0E0,0E0,0E0,0E0,0E0,0E0,0E0,0E0,0E0,0E0,0E0,0E0,0E0,0E0,0E0,0E0,0E0,0E0,0E0,0E0],"parents":[2147483647,0,0,1,1,2,2,3,3,4,4,5,5,6,6,7,7,8,8,9,9,10,10,12,12,13,13,14,14,15,15,16,16,17,17,18,18,19,19,20,20,21,21,24,24,25,25,26,26,27,27,28,28,30,30,31,31,32,32,33,33,34,34,35,35,36,36,37,37,38,38,39,39,40,40,41,41,43,43,44,44,45,45,46,46,47,47,48,48,49,49,51,51],"right_children":[2,4,6,8,10,12,14,16,18,20,22,-1,24,26,28,30,32,34,36,38,40,42,-1,-1,44,46,48,50,52,-1,54,56,58,60,62,64,66,68,70,72,74,76,-1,78,80,82,84,86,88,90,-1,92,-1,-1,-1,-1,-1,-1,-1,-1,-1,-1,-1,-1,-1,-1,-1,-1,-1,-1,-1,-1,-1,-1,-1,-1,-1,-1,-1,-1,-1,-1,-1,-1,-1,-1,-1,-1,-1,-1,-1,-1,-1],"split_conditions":[7.5E1,1.6E1,7E0,8E0,1.7E1,6E0,1.6E1,7E0,1.5E1,2.61E1,1.8E1,-2.3379247E0,2.51E1,8E0,1.7E1,6E0,2.53E1,1.97E1,3.17E1,5.85E1,6.65E1,3.38E1,-2.3367581E0,-2.1370256E0,2.78E1,2.78E1,8.9E1,3.06E1,1.8E1,-2.3348985E0,1.64E1,5.85E1,2.88E1,1.6E1,6.45E1,6.45E1,6.2E1,2.16E1,1.58E1,3.31E1,3.08E1,3.04E1,2.9284406E0,8.25E1,2.79E1,1.77E1,9.2E1,1.78E1,2E0,2.65E1,1.533444E0,2.56E1,-2.3378656E0,-2.1814544E0,-1.0511076E0,1.3087014E0,-9.236013E-1,1.0223926E0,1.9031779E0,1.5700196E0,3.9675796E0,6.9365144E0,5.163509E0,2.8170977E0,1.1449302E0,2.163671E0,4.1039014E0,-7.408237E-1,1.1995252E0,-1.574499E0,-8.21245E-1,1.2721908E0,2.4589007E0,-1.5984435E-2,8.4234726E-1,-1.9100802E0,-9.5821613E-1,-6.281435E-1,-1.6359017E0,3.6501763E0,-1.0427369E0,-1.8353258E0,-6.056858E-1,8.9229697E-1,3.528003E0,4.1115722E-1,3.349561E0,8.0171835E-1,-2.1323154E0,-1.036395E0,-3.1348014E-1,-2.1807218E0,-1.2199348E0],"split_indices":[1,3,3,3,3,3,3,3,3,0,3,0,0,3,3,3,0,0,0,1,1,0,0,0,0,0,1,0,3,0,0,1,0,0,1,1,1,0,0,0,0,0,0,1,0,0,1,0,2,0,0,0,0,0,0,0,0,0,0,0,0,0,0,0,0,0,0,0,0,0,0,0,0,0,0,0,0,0,0,0,0,0,0,0,0,0,0,0,0,0,0,0,0],"split_type":[0,0,0,0,0,0,0,0,0,0,0,0,0,0,0,0,0,0,0,0,0,0,0,0,0,0,0,0,0,0,0,0,0,0,0,0,0,0,0,0,0,0,0,0,0,0,0,0,0,0,0,0,0,0,0,0,0,0,0,0,0,0,0,0,0,0,0,0,0,0,0,0,0,0,0,0,0,0,0,0,0,0,0,0,0,0,0,0,0,0,0,0,0],"sum_hessian":[7.046E3,2.511E3,4.535E3,1.805E3,7.06E2,1.801E3,2.734E3,3.04E2,1.501E3,1.71E2,5.35E2,1.537E3,2.64E2,1.083E3,1.651E3,2.38E2,6.6E1,1.314E3,1.87E2,7.4E1,9.7E1,1.32E2,4.03E2,1.41E2,1.23E2,2.33E2,8.5E2,1.3E2,1.521E3,1.91E2,4.7E1,3.3E1,3.3E1,2E2,1.114E3,1.43E2,4.4E1,1.6E1,5.8E1,3.1E1,6.6E1,1.31E2,1E0,6.4E1,5.9E1,1.78E2,5.5E1,5.7E2,2.8E2,1.18E2,1.2E1,1.48E2,1.373E3,1.8E1,2.9E1,3E0,3E1,8E0,2.5E1,6.5E1,1.35E2,3.7E2,7.44E2,4.9E1,9.4E1,9E0,3.5E1,1.1E1,5E0,9E0,4.9E1,2.4E1,7E0,3.3E1,3.3E1,9.1E1,4E1,8E0,5.6E1,1E0,5.8E1,6.7E1,1.11E2,5.4E1,1E0,6.3E1,5.07E2,2.53E2,2.7E1,7.4E1,4.4E1,7.3E1,7.5E1],"tree_param":{"num_deleted":"0","num_feature":"4","num_nodes":"93","size_leaf_vector":"1"}},{"base_weights":[2.756582E-2,5.084024E1,-2.1406633E1,7.926124E1,-2.8737986E1,-4.266926E1,-8.49049E0,-2.9495014E1,9.710837E1,2.4945774E0,-4.02142E1,-2.2213986E0,-3.2418987E1,3.655252E1,-4.0324825E1,-4.1597324E1,1.0949749E1,1.0961058E2,6.213896E1,-1.4082523E1,1.5489745E1,-2.7841192E1,-2.2184732E0,-3.8835846E1,-2.0608625E1,6.3301197E1,1.5267382E1,-8.666506E0,-4.3246307E1,-4.2734905E1,-1.6751747E1,-2.527007E1,2.6743286E1,4.6661133E1,1.1526819E2,3.1934319E1,7.672201E1,-6.7292204E0,-2.080536E1,3.0680452E1,6.025738E0,-2.9220322E1,2.8552296E0,-2.1471531E0,-3.4100616E1,-2.5017317E1,-1.588229E1,2.0138971E1,8.0558975E1,-1.2536736E1,2.4680662E1,-1.3520443E1,3.1245834E1,-3.319959E1,-2.2213504E0,-2.2141197E0,-1.6929048E0,-4.8996177E-1,-1.1496289E0,-1.4524964E0,-3.3340082E-1,6.6038436E-1,1.7891318E0,2.9308445E0,4.476403E-2,3.9985847E0,6.175856E0,2.850252E0,2.4919188E-1,6.7203913E0,3.4931E0,-8.045618E-1,8.032551E-3,-1.2374088E0,-1.03095464E-1,9.069838E-1,1.9153131E0,5.4803073E-1,-1.0080036E-1,-1.9594605E0,-1.0405082E0,-1.4777714E0,-1.9187491E0,-1.2996806E0,-5.287679E-2,-6.707984E-1,-9.1507334E-1,-8.2882994E-1,1.9495102E0,4.5296483E0,1.436869E0,-9.9345726E-1,9.308786E-1,1.8662157E0,9.229138E-2,-9.8921996E-1,-1.8539242E-1,7.0902294E-1,1.8587351E0,-1.9377922E0,-1.003457E0],"categories":[],"categories_nodes":[],"categories_segments":[],"categories_sizes":[],"default_left":[0,0,0,0,0,0,0,0,0,0,0,0,0,0,0,0,0,0,0,0,0,0,0,0,0,0,0,0,0,0,0,0,0,0,0,0,0,0,0,0,0,0,0,0,0,0,0,0,0,0,0,0,0,0,0,0,0,0,0,0,0,0,0,0,0,0,0,0,0,0,0,0,0,0,0,0,0,0,0,0,0,0,0,0,0,0,0,0,0,0,0,0,0,0,0,0,0,0,0,0,0],"id":14,"left_children":[1,3,5,7,9,11,13,15,17,19,21,-1,23,25,27,29,31,33,35,37,39,41,-1,43,45,47,49,51,53,55,57,59,61,63,65,67,69,71,73,75,77,79,-1,-1,81,83,85,87,89,91,93,95,97,99,-1,-1,-1,-1,-1,-1,-1,-1,-1,-1,-1,-1,-1,-1,-1,-1,-1,-1,-1,-1,-1,-1,-1,-1,-1,-1,-1,-1,-1,-1,-1,-1,-1,-1,-1,-1,-1,-1,-1,-1,-1,-1,-1,-1,-1,-1,-1],"loss_changes":[7.67618E6,4.731477E6,1.3609842E6,2.993925E6,1.9759606E5,3.23245E4,4.425099E6,1.07161016E5,5.72035E5,3.2316043E4,1.9484125E4,0E0,2.0267969E4,7.2666225E5,1.6684575E5,4.0324688E3,2.9849797E4,3.41505E5,1.52157E5,3.12271E3,1.1891385E4,1.3852352E4,0E0,2.0169375E3,1.6863594E3,4.19982E5,1.869214E5,3.0257184E4,1.815675E4,6.985625E2,1.6519556E2,9.313047E2,3.9321035E3,4.481508E4,2.50127E5,7.8093375E4,8.4001E4,2.1311865E3,2.4616367E3,2.365414E3,2.1254028E3,7.8199766E3,0E0,0E0,5.754453E2,1.1421016E3,5.875879E1,1.1346413E5,2.07467E5,4.1716844E4,1.5381656E5,8.4089E3,1.192877E3,1.2208375E4,0E0,0E0,0E0,0E0,0E0,0E0,0E0,0E0,0E0,0E0,0E0,0E0,0E0,0E0,0E0,0E0,0E0,0E0,0E0,0E0,0E0,0E0,0E0,0E0,0E0,0E0,0E0,0E0,0E0,0E0,0E0,0E0,0E0,0E0,0E0,0E0,0E0,0E0,0E0,0E0,0E0,0E0,0E0,0E0,0E0,0E0,0E0],"parents":[2147483647,0,0,1,1,2,2,3,3,4,4,5,5,6,6,7,7,8,8,9,9,10,10,12,12,13,13,14,14,15,15,16,16,17,17,18,18,19,19,20,20,21,21,23,23,24,24,25,25,26,26,27,27,28,28,29,29,30,30,31,31,32,32,33,33,34,34,35,35,36,36,37,37,38,38,39,39,40,40,41,41,44,44,45,45,46,46,47,47,48,48,49,49,50,50,51,51,52,52,53,53],"right_children":[2,4,6,8,10,12,14,16,18,20,22,-1,24,26,28,30,32,34,36,38,40,42,-1,44,46,48,50,52,54,56,58,60,62,64,66,68,70,72,74,76,78,80,-1,-1,82,84,86,88,90,92,94,96,98,100,-1,-1,-1,-1,-1,-1,-1,-1,-1,-1,-1,-1,-1,-1,-1,-1,-1,-1,-1,-1,-1,-1,-1,-1,-1,-1,-1,-1,-1,-1,-1,-1,-1,-1,-1,-1,-1,-1,-1,-1,-1,-1,-1,-1,-1,-1,-1],"split_conditions":[7.3E1,1.6E1,7E0,8E0,1.7E1,6E0,1.6E1,7E0,1.4E1,2.61E1,1.8E1,-2.2213986E0,2.66E1,8E1,1.7E1,2.93E1,1.66E1,1.7E1,2.4E1,6.4E1,6.65E1,3.38E1,-2.2184732E0,2.01E1,2.84E1,9E0,8E0,3.08E1,1.8E1,6E0,7.15E1,1.56E1,2.88E1,1.2E1,1E1,6.25E1,5.9E1,1.99E1,2.4E1,6.25E1,7.05E1,2.51E1,2.8552296E0,-2.1471531E0,9.05E1,2.5E-1,8.2E1,2.32E1,1.5E1,2.78E1,9.2E1,2.65E1,3.11E1,2.88E1,-2.2213504E0,-2.2141197E0,-1.6929048E0,-4.8996177E-1,-1.1496289E0,-1.4524964E0,-3.3340082E-1,6.6038436E-1,1.7891318E0,2.9308445E0,4.476403E-2,3.9985847E0,6.175856E0,2.850252E0,2.4919188E-1,6.7203913E0,3.4931E0,-8.045618E-1,8.032551E-3,-1.2374088E0,-1.03095464E-1,9.069838E-1,1.9153131E0,5.4803073E-1,-1.0080036E-1,-1.9594605E0,-1.0405082E0,-1.4777714E0,-1.9187491E0,-1.2996806E0,-5.287679E-2,-6.707984E-1,-9.1507334E-1,-8.2882994E-1,1.9495102E0,4.5296483E0,1.436869E0,-9.9345726E-1,9.308786E-1,1.8662157E0,9.229138E-2,-9.8921996E-1,-1.8539242E-1,7.0902294E-1,1.8587351E0,-1.9377922E0,-1.003457E0],"split_indices":[1,3,3,3,3,3,3,3,3,0,3,0,0,1,3,0,0,0,0,1,1,0,0,0,0,3,3,0,3,3,1,0,0,3,3,1,1,0,0,1,1,0,0,0,1,2,1,0,3,0,1,0,0,0,0,0,0,0,0,0,0,0,0,0,0,0,0,0,0,0,0,0,0,0,0,0,0,0,0,0,0,0,0,0,0,0,0,0,0,0,0,0,0,0,0,0,0,0,0,0,0],"split_type":[0,0,0,0,0,0,0,0,0,0,0,0,0,0,0,0,0,0,0,0,0,0,0,0,0,0,0,0,0,0,0,0,0,0,0,0,0,0,0,0,0,0,0,0,0,0,0,0,0,0,0,0,0,0,0,0,0,0,0,0,0,0,0,0,0,0,0,0,0,0,0,0,0,0,0,0,0,0,0,0,0,0,0,0,0,0,0,0,0,0,0,0,0,0,0,0,0,0,0,0,0],"sum_hessian":[7.046E3,2.09E3,4.956E3,1.54E3,5.5E2,1.872E3,3.084E3,2.17E2,1.323E3,1.48E2,4.02E2,1.595E3,2.77E2,1.277E3,1.807E3,1.67E2,5E1,9.73E2,3.5E2,6.5E1,8.3E1,1.03E2,2.99E2,1.78E2,9.9E1,5.65E2,7.12E2,1.53E2,1.654E3,1.59E2,8E0,1.5E1,3.5E1,8.1E1,8.92E2,1.15E2,2.35E2,3.2E1,3.3E1,3.1E1,5.2E1,1.02E2,1E0,9.1E1,8.7E1,4.9E1,5E1,1.62E2,4.03E2,1.8E2,5.32E2,1.37E2,1.6E1,1.77E2,1.477E3,1.32E2,2.7E1,5E0,3E0,1.2E1,3E0,1.5E1,2E1,6.4E1,1.7E1,1.71E2,7.21E2,5.9E1,5.6E1,2.3E1,2.12E2,1.3E1,1.9E1,2.7E1,6E0,1.3E1,1.8E1,3.2E1,2E1,4.5E1,5.7E1,4.6E1,4.1E1,4.7E1,2E0,2.8E1,2.2E1,5.5E1,1.07E2,3.37E2,6.6E1,1.46E2,3.4E1,3.42E2,1.9E2,8.3E1,5.4E1,5E0,1.1E1,1.23E2,5.4E1],"tree_param":{"num_deleted":"0","num_feature":"4","num_nodes":"101","size_leaf_vector":"1"}},{"base_weights":[2.8295945E-2,4.8307957E1,-2.033741E1,7.531218E1,-2.730332E1,-4.054151E1,-8.064275E0,-2.8042664E1,9.227294E1,2.3774505E0,-3.8209354E1,-2.1103983E0,-3.082855E1,3.4731922E1,-3.8310665E1,-3.9550472E1,1.0415275E1,9.977766E1,3.8953278E1,-1.3410775E1,1.4754182E1,-2.6450525E1,-2.1079192E0,-3.6925022E1,-1.960758E1,6.014866E1,1.4506672E1,-8.2241335E0,-4.1087112E1,-4.0467167E1,-6.3427323E-1,-2.4118183E1,2.5474165E1,3.848256E1,1.0502172E2,1.6871038E1,5.5452934E1,-1.585658E0,-1.71631E1,2.9234627E1,5.732891E0,-2.7788431E1,2.783849E0,-2.0153394E0,-3.1811493E1,-2.5568478E1,-1.6289997E1,1.9138897E1,7.654579E1,-1.1910247E1,2.3450304E1,-1.5150069E1,1.7630056E1,-3.1556133E1,-2.110358E0,-2.104762E0,-1.5774463E0,-1.520898E0,-5.836524E-1,6.294288E-1,1.703935E0,2.7865567E0,-7.5250745E-2,6.6434045E0,4.914655E0,1.5429057E0,-8.160204E-1,3.8149612E0,1.7791109E0,-6.869226E-1,1.1492103E0,-6.523563E-1,-1.2192725E0,1.1353238E0,2.2990386E0,5.214597E-1,-9.600038E-2,-1.8636173E0,-9.893798E-1,-1.1358026E0,-1.6749457E0,-1.3535334E0,-5.111415E-2,3.591414E0,-9.3567145E-1,-7.6499E-1,1.8652939E0,4.303836E0,1.3660978E0,-1.1618903E0,3.406647E-1,1.5643857E0,-5.3992784E-1,-1.7159871E0,-6.4705926E-1,3.5486704E-1,1.7735432E0,-2.021341E0,-1.186594E0],"categories":[],"categories_nodes":[],"categories_segments":[],"categories_sizes":[],"default_left":[0,0,0,0,0,0,0,0,0,0,0,0,0,0,0,0,0,0,0,0,0,0,0,0,0,0,0,0,0,0,0,0,0,0,0,0,0,0,0,0,0,0,0,0,0,0,0,0,0,0,0,0,0,0,0,0,0,0,0,0,0,0,0,0,0,0,0,0,0,0,0,0,0,0,0,0,0,0,0,0,0,0,0,0,0,0,0,0,0,0,0,0,0,0,0,0,0,0,0],"id":15,"left_children":[1,3,5,7,9,11,13,15,17,19,21,-1,23,25,27,29,31,33,35,37,39,41,-1,43,45,47,49,51,53,55,-1,57,59,61,63,65,67,69,71,73,75,77,-1,-1,79,81,83,85,87,89,91,93,95,97,-1,-1,-1,-1,-1,-1,-1,-1,-1,-1,-1,-1,-1,-1,-1,-1,-1,-1,-1,-1,-1,-1,-1,-1,-1,-1,-1,-1,-1,-1,-1,-1,-1,-1,-1,-1,-1,-1,-1,-1,-1,-1,-1,-1,-1],"loss_changes":[6.9299415E6,4.271509E6,1.2288488E6,2.703925E6,1.7844928E5,2.901525E4,3.9946488E6,9.689145E4,5.2591E5,2.9313455E4,1.7598562E4,0E0,1.8293469E4,6.5609575E5,1.5069075E5,3.6239688E3,2.7136203E4,3.68823E5,5.9182094E4,2.9013154E3,1.0805514E4,1.2974594E4,0E0,1.8131719E3,1.5610703E3,3.7913762E5,1.6873495E5,2.7843021E4,1.63355E4,1.024125E3,0E0,8.993545E2,3.5624824E3,6.422864E4,1.87049E5,3.3929707E4,3.6222812E4,5.39184E3,1.1681895E3,2.4542246E3,1.9248616E3,7.0780234E3,0E0,0E0,4.0547656E2,1.2260098E3,1.5651916E4,1.02551234E5,1.8718425E5,3.8546977E4,1.4340694E5,4.7217793E3,5.9493516E3,1.1394969E4,0E0,0E0,0E0,0E0,0E0,0E0,0E0,0E0,0E0,0E0,0E0,0E0,0E0,0E0,0E0,0E0,0E0,0E0,0E0,0E0,0E0,0E0,0E0,0E0,0E0,0E0,0E0,0E0,0E0,0E0,0E0,0E0,0E0,0E0,0E0,0E0,0E0,0E0,0E0,0E0,0E0,0E0,0E0,0E0,0E0],"parents":[2147483647,0,0,1,1,2,2,3,3,4,4,5,5,6,6,7,7,8,8,9,9,10,10,12,12,13,13,14,14,15,15,16,16,17,17,18,18,19,19,20,20,21,21,23,23,24,24,25,25,26,26,27,27,28,28,29,29,31,31,32,32,33,33,34,34,35,35,36,36,37,37,38,38,39,39,40,40,41,41,44,44,45,45,46,46,47,47,48,48,49,49,50,50,51,51,52,52,53,53],"right_children":[2,4,6,8,10,12,14,16,18,20,22,-1,24,26,28,30,32,34,36,38,40,42,-1,44,46,48,50,52,54,56,-1,58,60,62,64,66,68,70,72,74,76,78,-1,-1,80,82,84,86,88,90,92,94,96,98,-1,-1,-1,-1,-1,-1,-1,-1,-1,-1,-1,-1,-1,-1,-1,-1,-1,-1,-1,-1,-1,-1,-1,-1,-1,-1,-1,-1,-1,-1,-1,-1,-1,-1,-1,-1,-1,-1,-1,-1,-1,-1,-1,-1,-1],"split_conditions":[7.3E1,1.6E1,7E0,8E0,1.7E1,6E0,1.6E1,7E0,1.5E1,2.61E1,1.8E1,-2.1103983E0,2.66E1,8E1,1.7E1,3.06E1,1.66E1,1.7E1,2.64E1,5.85E1,6.65E1,3.38E1,-2.1079192E0,2.23E1,2.78E1,9E0,8E0,3E1,1.8E1,6E0,-6.3427323E-1,1.4E1,2.88E1,1.2E1,6.1E1,6.8E1,6.8E1,2.16E1,7E1,3.31E1,7.05E1,2.51E1,2.783849E0,-2.0153394E0,8.25E1,2.5E-1,2.79E1,2.35E1,1.5E1,2.64E1,1.4E1,1.7E1,3.11E1,2.56E1,-2.110358E0,-2.104762E0,-1.5774463E0,-1.520898E0,-5.836524E-1,6.294288E-1,1.703935E0,2.7865567E0,-7.5250745E-2,6.6434045E0,4.914655E0,1.5429057E0,-8.160204E-1,3.8149612E0,1.7791109E0,-6.869226E-1,1.1492103E0,-6.523563E-1,-1.2192725E0,1.1353238E0,2.2990386E0,5.214597E-1,-9.600038E-2,-1.8636173E0,-9.893798E-1,-1.1358026E0,-1.6749457E0,-1.3535334E0,-5.111415E-2,3.591414E0,-9.3567145E-1,-7.6499E-1,1.8652939E0,4.303836E0,1.3660978E0,-1.1618903E0,3.406647E-1,1.5643857E0,-5.3992784E-1,-1.7159871E0,-6.4705926E-1,3.5486704E-1,1.7735432E0,-2.021341E0,-1.186594E0],"split_indices":[1,3,3,3,3,3,3,3,3,0,3,0,0,1,3,0,0,0,0,1,1,0,0,0,0,3,3,0,3,3,0,0,0,3,1,1,1,0,1,0,1,0,0,0,1,2,0,0,3,0,3,0,0,0,0,0,0,0,0,0,0,0,0,0,0,0,0,0,0,0,0,0,0,0,0,0,0,0,0,0,0,0,0,0,0,0,0,0,0,0,0,0,0,0,0,0,0,0,0],"split_type":[0,0,0,0,0,0,0,0,0,0,0,0,0,0,0,0,0,0,0,0,0,0,0,0,0,0,0,0,0,0,0,0,0,0,0,0,0,0,0,0,0,0,0,0,0,0,0,0,0,0,0,0,0,0,0,0,0,0,0,0,0,0,0,0,0,0,0,0,0,0,0,0,0,0,0,0,0,0,0,0,0,0,0,0,0,0,0,0,0,0,0,0,0,0,0,0,0,0,0],"sum_hessian":[7.046E3,2.09E3,4.956E3,1.54E3,5.5E2,1.872E3,3.084E3,2.17E2,1.323E3,1.48E2,4.02E2,1.595E3,2.77E2,1.277E3,1.807E3,1.67E2,5E1,1.159E3,1.64E2,6.5E1,8.3E1,1.03E2,2.99E2,1.78E2,9.9E1,5.65E2,7.12E2,1.53E2,1.654E3,1.61E2,6E0,1.5E1,3.5E1,9.2E1,1.067E3,7.1E1,9.3E1,1.6E1,4.9E1,3.1E1,5.2E1,1.02E2,1E0,1.03E2,7.5E1,3.3E1,6.6E1,1.62E2,4.03E2,1.8E2,5.32E2,1.21E2,3.2E1,1.77E2,1.477E3,1.33E2,2.8E1,9E0,6E0,1.5E1,2E1,6.4E1,2.8E1,2.04E2,8.63E2,5E1,2.1E1,4.4E1,4.9E1,1.1E1,5E0,3.3E1,1.6E1,2.4E1,7E0,3.2E1,2E1,4.5E1,5.7E1,1.4E1,6.1E1,3.1E1,2E0,1E0,6.5E1,5.6E1,1.06E2,3.37E2,6.6E1,1.12E2,6.8E1,4.33E2,9.9E1,1.1E1,1.1E2,2.1E1,1.1E1,8.1E1,9.6E1],"tree_param":{"num_deleted":"0","num_feature":"4","num_nodes":"99","size_leaf_vector":"1"}},{"base_weights":[2.8656138E-2,4.590058E1,-1.93214E1,7.155728E1,-2.5937658E1,-3.851747E1,-7.6605997E0,-2.665928E1,8.767484E1,2.275024E0,-3.630429E1,-2.0049446E0,-2.9299984E1,3.3000782E1,-3.6398205E1,-3.7598644E1,9.898998E0,9.917156E1,5.5522476E1,-1.276159E1,1.4062423E1,-2.5128664E1,-2.0028746E0,-1.8487835E0,-2.1130293E1,4.4341984E0,4.9500446E1,-7.8144526E0,-3.903597E1,-3.8466537E1,-6.0709023E-1,-2.304381E1,2.4265274E1,6.3808643E1,1.08341896E2,2.7683094E1,6.897098E1,-1.4791825E0,-1.6342377E1,2.7880219E1,5.454273E0,-2.642671E1,2.714253E0,-2.6206303E1,-1.5435862E1,-7.8455443E0,3.651634E1,7.2732544E1,2.6317974E1,-1.4411938E1,1.6813051E1,-2.9996351E1,-2.0049112E0,-2.0003095E0,-1.5012938E0,-1.4524577E0,-5.586388E-1,4.4784638E-1,1.5321335E0,1.7691683E0,3.941497E0,6.2404456E0,4.655589E0,2.5279534E0,1.5587272E-1,6.1378093E0,3.1293433E0,-6.554388E-1,1.1013267E0,-1.364623E0,-6.803413E-1,7.913818E-1,1.7646846E0,-2.5727887E-2,5.610547E-1,-1.7638865E0,-9.332437E-1,-6.1030257E-1,-1.4284791E0,3.5016282E0,-8.895969E-1,-9.47423E-1,2.843756E-1,9.2473996E-1,2.6592963E0,4.0892806E0,1.2988123E0,1.9054899E0,-5.132015E-1,-6.126599E-1,-1.6589648E0,3.3793026E-1,1.6922559E0,-1.7555687E0,-8.9594537E-1],"categories":[],"categories_nodes":[],"categories_segments":[],"categories_sizes":[],"default_left":[0,0,0,0,0,0,0,0,0,0,0,0,0,0,0,0,0,0,0,0,0,0,0,0,0,0,0,0,0,0,0,0,0,0,0,0,0,0,0,0,0,0,0,0,0,0,0,0,0,0,0,0,0,0,0,0,0,0,0,0,0,0,0,0,0,0,0,0,0,0,0,0,0,0,0,0,0,0,0,0,0,0,0,0,0,0,0,0,0,0,0,0,0,0,0],"id":16,"left_children":[1,3,5,7,9,11,13,15,17,19,21,-1,23,25,27,29,31,33,35,37,39,41,-1,-1,43,45,47,49,51,53,-1,55,57,59,61,63,65,67,69,71,73,75,-1,77,79,81,83,85,87,89,91,93,-1,-1,-1,-1,-1,-1,-1,-1,-1,-1,-1,-1,-1,-1,-1,-1,-1,-1,-1,-1,-1,-1,-1,-1,-1,-1,-1,-1,-1,-1,-1,-1,-1,-1,-1,-1,-1,-1,-1,-1,-1,-1,-1],"loss_changes":[6.255975E6,3.8558455E6,1.1092878E6,2.4417575E6,1.6123381E5,2.612725E4,3.606057E6,8.755569E4,4.83907E5,2.6588602E4,1.5897E4,0E0,1.6651516E4,6.021516E5,1.36013E5,3.2447188E3,2.4695705E4,3.08945E5,1.2950425E5,2.6422197E3,9.839369E3,1.215518E4,0E0,0E0,3.5554688E3,1.8505392E5,4.343335E5,2.5264164E4,1.4689E4,9.040781E2,0E0,8.160742E2,3.240121E3,8.388856E4,1.81991E5,6.5030086E4,7.3352625E4,4.935893E3,1.1263613E3,2.3006309E3,1.8300962E3,6.417664E3,0E0,2.0004141E3,1.473781E4,5.1194938E4,3.806986E4,1.68884E5,1.7595822E5,4.5361367E3,5.4224385E3,1.0367047E4,0E0,0E0,0E0,0E0,0E0,0E0,0E0,0E0,0E0,0E0,0E0,0E0,0E0,0E0,0E0,0E0,0E0,0E0,0E0,0E0,0E0,0E0,0E0,0E0,0E0,0E0,0E0,0E0,0E0,0E0,0E0,0E0,0E0,0E0,0E0,0E0,0E0,0E0,0E0,0E0,0E0,0E0,0E0],"parents":[2147483647,0,0,1,1,2,2,3,3,4,4,5,5,6,6,7,7,8,8,9,9,10,10,12,12,13,13,14,14,15,15,16,16,17,17,18,18,19,19,20,20,21,21,24,24,25,25,26,26,27,27,28,28,29,29,31,31,32,32,33,33,34,34,35,35,36,36,37,37,38,38,39,39,40,40,41,41,43,43,44,44,45,45,46,46,47,47,48,48,49,49,50,50,51,51],"right_children":[2,4,6,8,10,12,14,16,18,20,22,-1,24,26,28,30,32,34,36,38,40,42,-1,-1,44,46,48,50,52,54,-1,56,58,60,62,64,66,68,70,72,74,76,-1,78,80,82,84,86,88,90,92,94,-1,-1,-1,-1,-1,-1,-1,-1,-1,-1,-1,-1,-1,-1,-1,-1,-1,-1,-1,-1,-1,-1,-1,-1,-1,-1,-1,-1,-1,-1,-1,-1,-1,-1,-1,-1,-1,-1,-1,-1,-1,-1,-1],"split_conditions":[7.3E1,1.6E1,7E0,8E0,1.7E1,6E0,1.6E1,7E0,1.4E1,2.61E1,1.8E1,-2.0049446E0,2.5E1,9E0,1.7E1,3.06E1,1.66E1,1E1,2.4E1,5.85E1,6.65E1,3.38E1,-2.0028746E0,-1.8487835E0,2.78E1,2.78E1,8E1,3E1,1.8E1,6E0,-6.0709023E-1,1.4E1,2.55E1,9E0,6.6E1,6.25E1,5.9E1,2.16E1,1.58E1,6.25E1,3.08E1,2.52E1,2.714253E0,8.25E1,2.79E1,8E0,8E0,1.5E1,1.4E1,2.88E1,3.11E1,2.88E1,-2.0049112E0,-2.0003095E0,-1.5012938E0,-1.4524577E0,-5.586388E-1,4.4784638E-1,1.5321335E0,1.7691683E0,3.941497E0,6.2404456E0,4.655589E0,2.5279534E0,1.5587272E-1,6.1378093E0,3.1293433E0,-6.554388E-1,1.1013267E0,-1.364623E0,-6.803413E-1,7.913818E-1,1.7646846E0,-2.5727887E-2,5.610547E-1,-1.7638865E0,-9.332437E-1,-6.1030257E-1,-1.4284791E0,3.5016282E0,-8.895969E-1,-9.47423E-1,2.843756E-1,9.2473996E-1,2.6592963E0,4.0892806E0,1.2988123E0,1.9054899E0,-5.132015E-1,-6.126599E-1,-1.6589648E0,3.3793026E-1,1.6922559E0,-1.7555687E0,-8.9594537E-1],"split_indices":[1,3,3,3,3,3,3,3,3,0,3,0,0,3,3,0,0,3,0,1,1,0,0,0,0,0,1,0,3,3,0,0,0,3,1,1,1,0,0,1,0,0,0,1,0,3,3,3,3,0,0,0,0,0,0,0,0,0,0,0,0,0,0,0,0,0,0,0,0,0,0,0,0,0,0,0,0,0,0,0,0,0,0,0,0,0,0,0,0,0,0,0,0,0,0],"split_type":[0,0,0,0,0,0,0,0,0,0,0,0,0,0,0,0,0,0,0,0,0,0,0,0,0,0,0,0,0,0,0,0,0,0,0,0,0,0,0,0,0,0,0,0,0,0,0,0,0,0,0,0,0,0,0,0,0,0,0,0,0,0,0,0,0,0,0,0,0,0,0,0,0,0,0,0,0,0,0,0,0,0,0,0,0,0,0,0,0,0,0,0,0,0,0],"sum_hessian":[7.046E3,2.09E3,4.956E3,1.54E3,5.5E2,1.872E3,3.084E3,2.17E2,1.323E3,1.48E2,4.02E2,1.595E3,2.77E2,1.277E3,1.807E3,1.67E2,5E1,9.73E2,3.5E2,6.5E1,8.3E1,1.03E2,2.99E2,1.41E2,1.36E2,4.68E2,8.09E2,1.53E2,1.654E3,1.61E2,6E0,1.5E1,3.5E1,2.02E2,7.71E2,1.15E2,2.35E2,1.6E1,4.9E1,3.1E1,5.2E1,1.02E2,1E0,7E1,6.6E1,3.39E2,1.29E2,4.03E2,4.06E2,1.21E2,3.2E1,1.77E2,1.477E3,1.33E2,2.8E1,9E0,6E0,1.1E1,2.4E1,7.1E1,1.31E2,3.67E2,4.04E2,5.9E1,5.6E1,2.3E1,2.12E2,1.1E1,5E0,8E0,4.1E1,1.3E1,1.8E1,2.6E1,2.6E1,4.6E1,5.6E1,1.1E1,5.9E1,1E0,6.5E1,1.86E2,1.53E2,6.3E1,6.6E1,3.37E2,6.6E1,3.07E2,9.9E1,1.1E2,1.1E1,2.1E1,1.1E1,1.23E2,5.4E1],"tree_param":{"num_deleted":"0","num_feature":"4","num_nodes":"95","size_leaf_vector":"1"}},{"base_weights":[3.0833563E-2,4.0718872E1,-1.966633E1,6.5191734E1,-2.5368227E1,-3.6604374E1,-9.006512E0,-1.2029061E1,8.533271E1,3.5683098E0,-3.5062794E1,-1.9046097E0,-2.7844948E1,2.8862703E1,-3.4727104E1,-3.5805702E1,2.2715965E1,9.813829E1,5.2788128E1,-1.1981624E1,1.52775E1,-3.5365845E1,2.6463966E0,-3.5000736E1,-1.9984983E1,4.3017906E1,4.0681338E-1,-9.453412E0,-3.70231E1,-1.903167E0,-2.630999E1,-4.946287E0,4.301696E1,6.0270725E1,1.04522736E2,3.4333294E1,6.886858E1,-1.3789929E0,-1.5217453E1,9.524201E0,2.9073153E1,-2.7348614E1,-1.9037589E0,-3.1555164E1,-1.8952404E0,-2.3832207E1,-1.2835991E1,-4.5119443E0,5.2328777E1,-3.4349816E0,4.874641E1,-1.4890214E1,1.2065229E1,-2.721502E1,-1.9046189E0,-1.6806643E0,-6.581497E-1,3.5353802E-2,-3.4202688E0,1.4555593E0,2.5038257E0,5.3072896E0,2.5870168E0,6.1612883E0,4.5265865E0,-7.9329604E-1,2.0574448E0,4.2214746E0,2.436935E0,-6.253977E-1,1.055438E0,-1.4568346E0,-6.5583766E-1,6.91148E-1,-1.1416156E0,6.364135E-1,1.7212521E0,-1.7500155E0,-1.0636901E0,-1.6944056E0,-1.0370914E0,1.8383357E-1,-1.2273996E0,-7.436085E-1,-4.3080637E-1,-1.2188166E0,5.9142417E-1,3.0484338E0,1.1920913E0,2.8217623E-1,-1.2835306E0,3.8538415E0,1.4889495E0,-1.6092573E0,-6.3959116E-1,1.5044307E0,3.1528458E-1,-1.629986E0,-6.364841E-1],"categories":[],"categories_nodes":[],"categories_segments":[],"categories_sizes":[],"default_left":[0,0,0,0,0,0,0,0,0,0,0,0,0,0,0,0,0,0,0,0,0,0,0,0,0,0,0,0,0,0,0,0,0,0,0,0,0,0,0,0,0,0,0,0,0,0,0,0,0,0,0,0,0,0,0,0,0,0,0,0,0,0,0,0,0,0,0,0,0,0,0,0,0,0,0,0,0,0,0,0,0,0,0,0,0,0,0,0,0,0,0,0,0,0,0,0,0,0,0],"id":17,"left_children":[1,3,5,7,9,11,13,15,17,19,21,-1,23,25,27,29,31,33,35,37,39,41,-1,43,45,47,49,51,53,-1,55,57,59,61,63,65,67,69,71,73,75,77,-1,79,-1,81,83,85,87,89,91,93,95,97,-1,-1,-1,-1,-1,-1,-1,-1,-1,-1,-1,-1,-1,-1,-1,-1,-1,-1,-1,-1,-1,-1,-1,-1,-1,-1,-1,-1,-1,-1,-1,-1,-1,-1,-1,-1,-1,-1,-1,-1,-1,-1,-1,-1,-1],"loss_changes":[5.648542E6,3.7199188E6,8.571329E5,2.610824E6,1.7461303E5,2.284075E4,2.8412405E6,2.883032E5,5.49517E5,2.876916E4,1.42980625E4,0E0,1.4486453E4,4.7528525E5,1.00445125E5,3.4361875E3,7.995589E4,2.24343E5,1.098115E5,2.3119795E3,6.8664473E3,9.059125E3,0E0,2.0476562E2,3.297086E3,3.4896088E5,7.31518E4,1.7260574E4,1.56595E4,0E0,3.686254E3,2.1932559E4,6.5920312E3,4.929453E4,2.02108E5,6.155339E4,5.8846188E4,4.518538E3,1.1383066E3,9.356642E3,1.8362051E3,4.8798047E3,0E0,1.0629766E3,0E0,1.7442539E3,2.8429492E2,4.2485375E4,1.6074238E5,7.382606E4,1.3288023E4,3.8344004E3,2.9244614E3,1.2064883E4,0E0,0E0,0E0,0E0,0E0,0E0,0E0,0E0,0E0,0E0,0E0,0E0,0E0,0E0,0E0,0E0,0E0,0E0,0E0,0E0,0E0,0E0,0E0,0E0,0E0,0E0,0E0,0E0,0E0,0E0,0E0,0E0,0E0,0E0,0E0,0E0,0E0,0E0,0E0,0E0,0E0,0E0,0E0,0E0,0E0],"parents":[2147483647,0,0,1,1,2,2,3,3,4,4,5,5,6,6,7,7,8,8,9,9,10,10,12,12,13,13,14,14,15,15,16,16,17,17,18,18,19,19,20,20,21,21,23,23,24,24,25,25,26,26,27,27,28,28,30,30,31,31,32,32,33,33,34,34,35,35,36,36,37,37,38,38,39,39,40,40,41,41,43,43,45,45,46,46,47,47,48,48,49,49,50,50,51,51,52,52,53,53],"right_children":[2,4,6,8,10,12,14,16,18,20,22,-1,24,26,28,30,32,34,36,38,40,42,-1,44,46,48,50,52,54,-1,56,58,60,62,64,66,68,70,72,74,76,78,-1,80,-1,82,84,86,88,90,92,94,96,98,-1,-1,-1,-1,-1,-1,-1,-1,-1,-1,-1,-1,-1,-1,-1,-1,-1,-1,-1,-1,-1,-1,-1,-1,-1,-1,-1,-1,-1,-1,-1,-1,-1,-1,-1,-1,-1,-1,-1,-1,-1,-1,-1,-1,-1],"split_conditions":[7.35E1,1.6E1,7E0,9E0,1.7E1,6E0,1.6E1,7E0,1.4E1,2.61E1,3.58E1,-1.9046097E0,2.5E1,8.9E1,1.7E1,6E0,2.53E1,1.95E1,2.85E1,5.85E1,3.22E1,1.8E1,2.6463966E0,9.05E1,2.84E1,8E0,2.78E1,3E1,1.8E1,-1.903167E0,2.54E1,2.5E1,8E0,5.8E1,6.6E1,1.66E1,1.5E1,2.16E1,1.54E1,3.2E1,6.25E1,2.51E1,-1.9037589E0,2.29E1,-1.8952404E0,7.55E1,2.93E1,2.5E1,1.4E1,2.5E-1,2.84E1,1.7E1,3.04E1,2.88E1,-1.9046189E0,-1.6806643E0,-6.581497E-1,3.5353802E-2,-3.4202688E0,1.4555593E0,2.5038257E0,5.3072896E0,2.5870168E0,6.1612883E0,4.5265865E0,-7.9329604E-1,2.0574448E0,4.2214746E0,2.436935E0,-6.253977E-1,1.055438E0,-1.4568346E0,-6.5583766E-1,6.91148E-1,-1.1416156E0,6.364135E-1,1.7212521E0,-1.7500155E0,-1.0636901E0,-1.6944056E0,-1.0370914E0,1.8383357E-1,-1.2273996E0,-7.436085E-1,-4.3080637E-1,-1.2188166E0,5.9142417E-1,3.0484338E0,1.1920913E0,2.8217623E-1,-1.2835306E0,3.8538415E0,1.4889495E0,-1.6092573E0,-6.3959116E-1,1.5044307E0,3.1528458E-1,-1.629986E0,-6.364841E-1],"split_indices":[1,3,3,3,3,3,3,3,3,0,0,0,0,1,3,3,0,0,0,1,0,3,0,1,0,3,0,0,3,0,0,0,3,1,1,0,3,0,0,0,1,0,0,0,0,1,0,0,3,2,0,0,0,0,0,0,0,0,0,0,0,0,0,0,0,0,0,0,0,0,0,0,0,0,0,0,0,0,0,0,0,0,0,0,0,0,0,0,0,0,0,0,0,0,0,0,0,0,0],"split_type":[0,0,0,0,0,0,0,0,0,0,0,0,0,0,0,0,0,0,0,0,0,0,0,0,0,0,0,0,0,0,0,0,0,0,0,0,0,0,0,0,0,0,0,0,0,0,0,0,0,0,0,0,0,0,0,0,0,0,0,0,0,0,0,0,0,0,0,0,0,0,0,0,0,0,0,0,0,0,0,0,0,0,0,0,0,0,0,0,0,0,0,0,0,0,0,0,0,0,0],"sum_hessian":[7.046E3,2.298E3,4.748E3,1.677E3,6.21E2,1.833E3,2.915E3,3.47E2,1.33E3,1.56E2,4.65E2,1.564E3,2.69E2,1.179E3,1.736E3,2.06E2,1.41E2,9.53E2,3.77E2,6.7E1,8.9E1,4.64E2,1E0,1.39E2,1.3E2,7.87E2,3.92E2,1.45E2,1.591E3,1.64E2,4.2E1,6E1,8.1E1,1.39E2,8.14E2,1.77E2,2E2,1.6E1,5.1E1,6.4E1,2.5E1,1.2E2,3.44E2,6.9E1,7E1,8.3E1,4.7E1,1.29E2,6.58E2,3.64E2,2.8E1,1.16E2,2.9E1,1.59E2,1.432E3,2.6E1,1.6E1,5.6E1,4E0,2.9E1,5.2E1,2E1,1.19E2,3.45E2,4.69E2,2.1E1,1.56E2,1.11E2,8.9E1,1.1E1,5E0,5E0,4.6E1,5.7E1,7E0,7E0,1.8E1,5.1E1,6.9E1,5.5E1,1.4E1,2E0,8.1E1,3E1,1.7E1,5.8E1,7.1E1,5.04E2,1.54E2,2.59E2,1.05E2,1E1,1.8E1,1.1E1,1.05E2,6E0,2.3E1,1.15E2,4.4E1],"tree_param":{"num_deleted":"0","num_feature":"4","num_nodes":"99","size_leaf_vector":"1"}},{"base_weights":[3.1505045E-2,3.6200806E1,-1.9998766E1,6.007622E1,-2.4839092E1,-3.481512E1,-1.0229453E1,-2.4770607E1,7.726544E1,1.8966329E0,-3.3372124E1,-1.8093051E0,-2.6726887E1,2.468881E1,-3.313573E1,-3.3862476E1,8.031299E0,8.349065E1,3.3311123E1,-6.4739475E0,2.0813105E1,-3.362742E1,2.580237E0,-3.266991E1,-1.8316597E1,1.6375506E0,3.9552464E1,-8.438171E0,-3.52397E1,-1.8097868E0,-2.3823975E1,-1.076442E1,2.7722778E1,4.7029263E1,8.9988625E1,2.6299498E1,6.544757E1,-1.4035254E1,1.3212789E0,3.2279198E1,1.3456195E1,-2.5531073E1,-1.8094761E0,-2.9262075E1,-1.7807604E0,-2.2020044E1,-1.2313242E1,-8.311657E0,3.213286E1,6.475174E1,2.3790869E1,-1.2169403E1,2.636604E1,-2.627775E1,-1.8092955E0,-1.7659625E0,-7.874752E-1,1.2333041E0,-7.428422E-1,1.7800041E0,1.108297E0,1.0254334E0,2.9776874E0,5.4891634E0,4.000519E0,2.0407999E0,6.52011E-1,1.424603E0,3.9059358E0,-5.2420086E-1,-1.6694307E0,2.690749E-1,-6.8859667E-1,6.085704E-1,2.1085105E0,-1.03625976E-1,1.158395E0,-1.5125216E0,-7.1592915E-1,-1.607777E0,-1.0535327E0,-1.2757779E0,-9.1020775E-1,-7.0762753E-1,-3.8455614E-1,-1.3504182E0,-5.637271E-4,7.617766E-1,2.5207603E0,3.7475746E0,7.299732E-1,1.737337E0,-5.0955606E-1,-1.6327676E0,-5.098207E-1,1.538525E0,8.0495447E-1,-1.7108873E0,-9.1004705E-1],"categories":[],"categories_nodes":[],"categories_segments":[],"categories_sizes":[],"default_left":[0,0,0,0,0,0,0,0,0,0,0,0,0,0,0,0,0,0,0,0,0,0,0,0,0,0,0,0,0,0,0,0,0,0,0,0,0,0,0,0,0,0,0,0,0,0,0,0,0,0,0,0,0,0,0,0,0,0,0,0,0,0,0,0,0,0,0,0,0,0,0,0,0,0,0,0,0,0,0,0,0,0,0,0,0,0,0,0,0,0,0,0,0,0,0,0,0,0,0],"id":18,"left_children":[1,3,5,7,9,11,13,15,17,19,21,-1,23,25,27,29,31,33,35,37,39,41,-1,43,45,47,49,51,53,-1,55,57,59,61,63,65,67,69,71,73,75,77,-1,79,-1,81,83,85,87,89,91,93,95,97,-1,-1,-1,-1,-1,-1,-1,-1,-1,-1,-1,-1,-1,-1,-1,-1,-1,-1,-1,-1,-1,-1,-1,-1,-1,-1,-1,-1,-1,-1,-1,-1,-1,-1,-1,-1,-1,-1,-1,-1,-1,-1,-1,-1,-1],"loss_changes":[5.1061405E6,3.6623625E6,6.562099E5,2.635877E6,1.6135603E5,1.9015E4,2.188401E6,9.123231E4,4.08203E5,2.7369541E4,1.3363375E4,0E0,1.2646969E4,3.713418E5,8.5545375E4,4.7356562E3,2.5096158E4,3.07325E5,4.064058E4,7.0915957E3,4.036461E3,1.0173875E4,0E0,5.0353125E2,2.2189688E3,1.29517234E5,2.6020169E5,1.7332855E4,1.19555E4,0E0,3.8990137E3,5.441343E3,6.553965E2,6.554216E4,2.11446E5,2.9494367E4,1.3227094E4,3.8423828E3,3.751018E3,3.464455E3,5.1755664E3,6.551742E3,0E0,1.1474922E3,0E0,4.4253125E2,2.7371875E2,4.997082E4,3.1668781E4,1.28325625E5,1.5188114E5,4.4768438E3,9.2487305E1,8.932547E3,0E0,0E0,0E0,0E0,0E0,0E0,0E0,0E0,0E0,0E0,0E0,0E0,0E0,0E0,0E0,0E0,0E0,0E0,0E0,0E0,0E0,0E0,0E0,0E0,0E0,0E0,0E0,0E0,0E0,0E0,0E0,0E0,0E0,0E0,0E0,0E0,0E0,0E0,0E0,0E0,0E0,0E0,0E0,0E0,0E0],"parents":[2147483647,0,0,1,1,2,2,3,3,4,4,5,5,6,6,7,7,8,8,9,9,10,10,12,12,13,13,14,14,15,15,16,16,17,17,18,18,19,19,20,20,21,21,23,23,24,24,25,25,26,26,27,27,28,28,30,30,31,31,32,32,33,33,34,34,35,35,36,36,37,37,38,38,39,39,40,40,41,41,43,43,45,45,46,46,47,47,48,48,49,49,50,50,51,51,52,52,53,53],"right_children":[2,4,6,8,10,12,14,16,18,20,22,-1,24,26,28,30,32,34,36,38,40,42,-1,44,46,48,50,52,54,-1,56,58,60,62,64,66,68,70,72,74,76,78,-1,80,-1,82,84,86,88,90,92,94,96,98,-1,-1,-1,-1,-1,-1,-1,-1,-1,-1,-1,-1,-1,-1,-1,-1,-1,-1,-1,-1,-1,-1,-1,-1,-1,-1,-1,-1,-1,-1,-1,-1,-1,-1,-1,-1,-1,-1,-1,-1,-1,-1,-1,-1,-1],"split_conditions":[7.5E1,1.6E1,7E0,8E0,1.7E1,6E0,1.6E1,7E0,1.5E1,3.08E1,3.58E1,-1.8093051E0,2.56E1,9E0,1.7E1,6E0,2.55E1,1.97E1,3.22E1,2.4E1,6.65E1,1.8E1,2.580237E0,9.05E1,2.84E1,2.78E1,8E1,3.06E1,1.8E1,-1.8097868E0,1.64E1,5.85E1,6.65E1,1.6E1,6.45E1,6.8E1,6.2E1,2.24E1,3E1,